22622 10
</s> 0.040027 0.044194 -0.038303 -0.032780 0.013666 0.030211 0.009409 0.002113 -0.036035 0.022185 
- -0.372609 -0.212576 0.817769 -1.127449 0.400321 0.412175 0.030990 -0.381144 -0.033354 0.420007 
the 0.072997 0.551033 1.065797 -0.385208 -0.147257 0.021355 -0.566836 -1.466119 1.690483 0.884263 
to 0.178120 -0.546278 0.480787 0.677933 -0.918337 -0.229684 2.155458 0.278897 2.200464 1.516958 
I -2.219022 -1.616561 1.514654 1.388359 -1.356095 -1.077200 0.914465 -0.325240 0.300990 0.724169 
a -0.400530 1.356995 2.000374 0.323140 0.313983 -0.713575 0.359174 -1.632064 1.033400 0.628201 
and -0.263061 1.128223 0.591910 0.049350 -0.505408 -0.012604 0.618767 -1.518341 1.192029 0.349528 
my -1.930263 2.342703 -0.618520 -0.025469 0.049070 -0.108049 0.589694 -1.601528 2.181621 1.071791 
for 0.507100 0.546299 1.567210 -0.198671 -0.591376 0.064718 1.041145 0.636849 2.240070 1.028445 
in 0.637263 1.001373 0.531324 -0.803656 -0.960657 -0.740971 -0.167265 -1.129569 1.232669 1.055795 
is -0.198211 0.439759 0.242745 -1.244816 1.071103 -0.181058 -0.345255 -1.649633 -0.974583 1.218014 
of 0.403807 1.387653 2.503459 0.005431 -0.313947 -0.027682 -1.040729 -1.411896 0.380833 1.280703 
you -2.469998 -2.637137 2.007496 0.734678 0.507839 1.205848 2.521027 2.041614 0.238468 -0.000609 
it -1.734338 -1.769675 1.140463 1.311567 -0.028968 -0.857776 0.652143 -1.208769 0.707068 1.633938 
on -0.226464 0.408108 0.015765 -0.829169 -0.209713 0.462623 -0.531517 -0.357567 2.210652 1.808478 
i -4.281333 -2.458673 -1.988143 1.520015 -1.100742 -1.468585 2.396850 -2.628509 1.226674 -0.105683 
have -0.689308 -0.845910 1.531779 1.504800 -0.648526 -0.896464 1.591695 -0.780115 0.791783 1.334015 
that -2.601978 -0.949198 1.699207 0.772309 0.307858 -0.563159 0.037075 -0.670492 -0.337766 1.209119 
with -0.448878 1.918136 1.062824 -0.077701 -0.027452 0.954941 0.885374 -1.115328 1.681707 -0.342304 
me -3.068303 0.900059 -0.082874 1.275715 -0.831300 0.712015 2.566430 0.874516 0.202183 1.168693 
so -1.630028 -1.245426 0.725072 -0.031593 -0.019116 -2.087246 1.641115 -1.495504 -0.484463 -0.389668 
be 1.126376 -2.934843 1.854908 1.115138 -1.237147 -0.804607 2.115133 -0.211274 0.980414 0.790827 
at 0.720878 0.618363 0.633690 -0.528236 -1.619638 -1.294978 1.102200 -0.704578 2.296424 0.188746 
but -1.272983 -1.327532 0.956696 1.750084 -0.459958 -1.423723 1.179159 -2.063818 0.490140 1.453989 
was -1.996055 -0.755058 2.376027 -0.002843 -0.695767 -2.389326 -0.613133 -2.122003 0.791232 -0.977824 
this 0.044345 -0.586410 0.438264 -1.597110 0.728044 -1.200802 0.375733 -0.711078 1.006774 0.607725 
I'm 0.208663 -1.046931 1.047699 -0.049978 -0.612468 -1.703482 1.835448 -0.672587 -0.268890 0.432815 
just -2.656119 0.393387 1.233859 0.744760 -0.499103 -1.150973 0.121990 -0.902405 1.236559 0.897972 
not -0.474188 -0.576332 1.358172 0.908116 0.051191 -1.450383 1.264230 -1.008837 -0.610084 2.147573 
like -1.209488 -0.837279 0.945937 0.796864 0.999047 0.054698 0.537193 -2.784684 -1.194739 0.583529 
are -0.396791 -0.344225 2.277133 0.384998 0.242962 0.846195 0.840135 -0.392687 -1.679265 0.252207 
all -0.490340 0.836419 1.223697 -0.108624 0.356672 -1.125422 1.665852 -0.196511 0.866183 0.923647 
get 0.495974 -1.527742 0.360036 2.540006 -1.157015 0.436329 2.955547 -1.396591 2.185431 1.553634 
from -0.368675 1.641307 0.327845 -0.964489 -0.343489 -0.465826 0.034905 -0.269506 2.423190 1.326041 
up -0.447148 1.639932 -0.067386 0.209409 -0.562523 -1.934396 2.692716 -0.542056 2.992074 1.246385 
out -0.954159 1.144703 0.796194 0.165792 -0.357038 0.091418 0.989773 -0.259192 3.493089 0.642929 
your -2.354725 -0.659117 1.933287 -0.023712 2.522057 2.268432 1.100312 1.406794 1.025388 0.948310 
&amp; 0.046684 2.159654 0.547256 -0.690453 -1.245544 1.332956 0.902197 0.002055 0.629870 -0.330773 
good 0.439045 -0.095498 1.904757 -1.206682 2.147722 -0.969031 1.736183 -0.748075 0.463001 -0.262725 
now -0.046976 0.337820 -0.401212 -0.312859 -0.125116 -1.199436 1.030264 -1.381840 1.057409 1.679955 
love -2.070459 -1.911597 -0.165755 -0.948638 1.434150 2.498973 0.838720 -1.174875 0.549132 -1.778226 
day 2.920652 0.929799 1.272555 -2.119999 0.653114 -1.786270 2.378624 -1.475792 1.748754 -1.034352 
got -1.886816 0.747665 0.052710 -0.085098 -0.036041 -1.644604 -0.042798 -2.109924 2.958644 0.825106 
it's 0.833561 -1.790535 1.617033 -0.015066 0.721060 -1.622712 0.686732 -1.842240 -0.422615 1.369741 
do 0.279126 -2.636529 0.495672 1.613288 0.569814 0.963263 2.799386 -0.494063 -0.260419 2.140136 
no -0.113498 0.013922 0.659580 0.750280 -0.317641 -0.972683 0.971429 -0.995209 -0.415693 2.600479 
go 0.803851 -1.811934 -0.794694 1.363662 -2.381716 0.231293 3.411330 -1.400557 2.462162 -0.204011 
about -1.413012 -0.828129 1.451948 -0.044180 -0.364542 -1.948373 0.908869 1.023205 0.245386 2.133617 
will -0.502484 -1.613147 0.191205 -0.421231 -0.179822 -1.234654 1.847117 1.911062 1.667550 2.769338 
some 0.537706 0.840458 2.400125 1.841902 -0.105988 1.105878 2.372774 -0.973258 1.990039 0.191472 
one -1.519611 -0.118806 1.864089 0.578613 -0.782642 -0.054857 -0.649281 -0.975792 0.174321 0.746537 
as -0.774088 -0.555201 2.346950 0.127517 1.009971 -1.505617 0.293056 -0.363682 0.343297 1.946431 
can -1.643065 -1.573392 -0.117978 1.317105 -0.042170 0.694855 2.391271 0.982649 0.617284 2.685951 
we -1.638358 -1.112307 1.936618 1.410392 -1.742032 -0.516518 1.990389 0.652236 1.035702 -0.033090 
had -1.899345 1.272666 2.508182 0.862356 -0.365138 -2.190632 0.718360 -2.159954 2.385357 -0.838108 
going 0.552610 -0.846274 -0.626855 -0.784268 -0.633277 -1.802687 2.587750 -0.237530 1.671256 0.752343 
work 2.016526 -0.671317 -0.089816 0.546043 -0.640955 -1.634811 3.219807 -1.111068 2.325517 2.021286 
an -0.189444 0.939307 1.810736 0.520839 -0.153763 -0.284500 -0.222278 -1.160158 1.881648 1.581280 
back 0.156476 0.422694 -0.493094 -0.863631 -0.594000 -1.371519 2.012558 -0.318821 3.194617 0.611955 
time 0.991974 -0.056096 0.800976 -0.138042 -0.532742 -1.706344 2.021463 -0.525024 2.042840 1.096757 
new -0.719019 -0.078804 0.390223 -0.941796 0.876931 2.226019 -1.875543 -1.134104 2.848117 1.374681 
too -0.498767 -0.134272 1.629214 0.421157 0.246622 -1.736220 1.743320 -1.583066 -0.815686 0.176123 
am -0.276266 -0.526521 0.171372 -0.213968 -0.114148 -1.509975 1.798498 -0.947548 -0.794734 0.990550 
2 -0.608333 1.507453 -1.038183 -0.775438 -3.732482 -2.233730 1.967778 1.480429 0.847394 1.711586 
what -1.783726 -1.683747 1.102447 0.922106 0.184266 -0.443119 1.967816 0.317770 -1.724068 1.705307 
see -0.825524 -3.726867 0.570907 0.326380 -0.615985 1.222163 1.648466 0.026516 2.683923 -1.014089 
know -2.685856 -2.736303 0.970526 1.932415 -0.075148 1.081037 2.049569 0.467301 -0.615273 1.579754 
don't -2.092449 -2.039111 0.600918 2.212273 -0.702910 -0.212165 2.118242 -0.110737 -0.989198 2.585260 
if -2.460178 -2.688280 1.732041 2.908314 -0.888668 0.825130 1.791917 0.779874 0.715506 2.465904 
The 1.794952 0.128237 1.482941 -2.644644 -0.823865 1.380059 -2.662818 -1.074760 -0.600321 0.044161 
really -1.030983 -1.982455 1.437130 0.682538 0.408384 -1.173639 1.219772 -2.270000 -0.771379 -0.224602 
more 1.154387 -0.746160 2.578212 1.104586 -1.203066 -0.935534 0.994084 0.244415 -0.726603 2.747405 
today 0.890641 0.982552 0.431627 -0.896972 -0.168199 -1.612313 1.722018 -1.590505 1.926316 -0.185301 
think -1.937105 -1.419424 0.712568 1.602263 0.387760 -0.581724 1.260982 -1.792059 -0.122227 1.487285 
still -0.619981 -0.419060 -0.042936 -0.015817 -0.161943 -2.114048 0.854346 -1.576339 -0.078055 2.031614 
u -4.036200 -1.962439 -1.813239 0.359201 -0.429837 1.198872 5.006736 2.160319 0.395492 -0.391120 
when -2.738795 -0.444942 0.334769 1.333199 -0.289115 -0.762090 1.120889 -0.697113 0.988304 1.736821 
last -1.224897 0.213076 1.255786 -2.278092 -1.806427 -4.693409 -0.260656 -0.580597 3.490648 -1.020318 
they -3.319960 -0.987932 2.799444 3.245266 -2.522326 -0.115790 0.340271 -0.478920 0.135092 1.073909 
My -1.826223 4.232134 0.027700 -1.700277 -0.436375 0.113250 -0.783833 -1.233131 -0.669761 0.382572 
been -1.993235 0.556553 2.590997 -0.989666 1.558254 -5.333096 0.060071 -0.466050 2.281742 2.447978 
has -1.385138 3.001828 0.927712 -1.360645 0.654737 -2.032815 -1.308134 -1.037869 0.287833 2.764477 
can't -2.487532 -3.143536 -1.609635 -0.181152 -0.974537 -1.556274 0.444137 0.341576 1.836945 2.915885 
want -1.271852 -2.117214 -1.004565 1.671326 -0.777643 1.735267 2.135558 -1.219940 0.302142 1.133223 
or -0.295510 -1.265645 0.256473 2.201881 -1.361927 1.336962 1.480193 -0.262768 -0.317204 3.192060 
need -0.177290 -0.540185 -0.582203 1.767733 0.072078 0.605119 2.592935 -1.161816 1.237679 2.739670 
great 0.564872 0.233408 3.107718 -2.171633 2.676460 -0.131481 1.226335 0.061182 1.973451 -1.618717 
by -0.590700 1.857106 0.869043 -1.101396 -0.350767 0.070374 -1.021992 -0.080901 0.293960 1.874342 
-- -0.623524 -0.180565 0.902214 -1.048021 -0.006050 0.372952 0.034323 0.749023 -0.256202 1.228158 
Just -1.069357 1.549327 2.880824 -0.657139 -1.244507 -1.252408 -1.462852 -0.286011 3.448316 -0.096733 
there -1.324286 -0.921502 2.315180 0.697851 -0.493238 -1.152774 1.294667 0.194811 0.772187 0.361589 
much -0.129935 -0.772312 1.635441 0.180082 0.677401 -1.823483 2.541294 -1.062390 -0.910824 0.083628 
off 0.326318 1.696612 -0.920016 -0.418044 -0.259780 -1.412287 2.269350 -1.244905 3.570229 1.448799 
how -2.640419 -1.426891 0.819088 0.602427 0.649521 -0.605276 1.690338 0.714667 -1.380600 2.109029 
then 1.087906 0.398372 -0.986004 0.443103 -2.213707 -1.273625 3.497789 -1.105372 3.804272 0.357563 
its -0.744070 -1.166379 -1.337116 -0.533883 0.631307 -1.588742 1.211384 -2.550404 -0.369862 1.175709 
only -1.447268 -0.283996 1.257143 0.918550 -2.124425 -1.618007 -0.936574 -0.630049 0.016788 2.750504 
miss -2.041647 -0.973653 -1.293895 -1.263034 -0.743882 -0.205507 2.137079 -0.701161 1.370520 -2.084615 
very -0.180136 0.144771 3.309818 -0.909077 1.785212 -1.327508 0.249973 -1.467237 -1.266527 -0.446101 
... -0.528187 -0.598898 -1.911430 -1.321162 -0.531656 0.170866 0.999731 -0.586846 -1.127990 1.061858 
her -5.233948 3.185135 -0.218364 0.461798 -0.553570 -0.147817 1.641982 -0.529099 2.052053 -0.807303 
here 1.473289 -0.639345 0.505216 -0.727123 0.310977 -0.198656 2.259553 -0.446819 0.374562 0.373561 
would -2.568832 -1.855729 2.036092 1.662794 -0.639087 -0.089471 0.935424 0.167423 -0.184222 0.951441 
make -0.352100 -1.212970 1.476928 2.806006 -0.189634 2.320325 2.614400 -1.485477 0.046780 0.483560 
he -6.662544 2.136641 0.588400 1.073702 -1.251166 -1.776705 0.885678 -0.341125 -0.517615 0.174529 
night 0.673001 -0.242297 0.734641 -1.289245 -1.228305 -3.148010 2.586215 -1.728332 2.625948 -2.403842 
home 0.245574 2.038366 -0.674269 -0.659397 -1.688014 -2.127638 3.155313 -0.953182 3.390200 -0.394887 
You -0.721624 -2.760705 3.068594 -0.537389 -0.012817 2.561277 1.024874 1.839330 -1.670054 -1.289577 
hope -0.153768 -1.635086 0.577944 -1.355487 2.981039 -1.579588 3.833014 0.278498 0.956601 0.170723 
It's 2.370405 -1.339061 2.237293 -1.584889 0.440982 -1.296242 0.023494 -1.248951 -1.479200 0.533439 
im -2.239529 -1.862011 -4.278008 -0.656584 -0.631692 -2.591122 3.994930 -2.603369 0.223359 0.181025 
well -0.928634 -0.905451 0.775226 -0.458419 1.302683 -1.949944 2.240797 -0.314351 0.649495 0.823323 
should -0.696655 -1.851598 0.575691 0.281947 -0.058397 -0.542747 1.253526 0.745701 0.585012 2.512866 
I'll -0.353832 -2.429993 0.806737 0.072144 -0.457568 -0.939993 3.113454 3.087122 2.986504 2.387901 
lol -3.386489 -1.262643 -1.529682 0.078609 0.508608 -0.457857 2.592698 -1.279901 -0.175385 -0.258738 
i'm -1.608687 -1.795648 -1.592452 0.408091 -0.437743 -2.300736 3.083394 -2.521809 1.015642 -0.170757 
feel -0.762777 0.017320 -0.066271 1.496785 0.521301 -1.614023 3.644475 -3.012847 -1.921210 0.699752 
did -2.114959 -1.895697 0.487168 0.706642 -0.225988 -0.258099 0.488438 -0.648067 0.040213 1.359046 
them -2.548835 -0.656146 1.786077 2.700464 -1.992229 0.418886 1.261242 -0.240236 1.656913 0.730557 
our -0.573871 2.909329 2.695709 -0.143526 -1.079764 0.399398 -0.325206 0.712939 2.655448 0.766834 
after 0.763385 1.534335 0.714009 -0.962238 -1.363991 -2.617299 0.547010 -0.797650 2.695818 1.417806 
look -1.770080 -2.541046 1.864257 0.549212 2.093670 1.692580 0.358250 -2.774583 -0.167775 -1.403517 
could -2.493115 -1.846829 2.140010 1.935680 -1.438942 -1.071610 1.947079 0.474918 0.848582 0.440747 
way 1.096137 0.891165 0.613809 -0.487049 0.202235 -0.055488 1.292277 -0.698603 0.718105 1.329602 
over 0.242228 0.690777 0.797564 -0.387537 -1.253377 -1.786491 0.164792 -1.009587 1.453285 1.336738 
I've -2.859063 1.023935 3.660781 -0.012673 -0.202010 -4.463540 -0.758444 0.701739 1.045046 2.637729 
right -0.074995 -0.159238 -0.679315 0.002035 0.046920 -0.190453 1.436390 -1.885391 -0.813832 1.245257 
getting 0.444400 1.219717 0.058383 0.038291 -0.104103 -2.152542 2.225291 -1.362480 1.137086 1.802156 
nice 0.311508 0.120636 1.828539 -1.166750 3.447585 0.545397 1.129223 -1.980670 1.447969 -0.657134 
come -1.003086 -2.198520 -0.932516 0.833851 -1.158182 1.679156 3.090692 0.492489 2.553009 -0.119097 
little -1.861840 2.277158 1.050192 -0.116460 0.819149 -0.952995 1.659001 -2.219759 0.208789 -1.256500 
And -0.196398 -0.744097 1.782737 -0.666037 -0.473537 -0.330713 0.400994 -0.656251 -1.611613 -0.610185 
thanks -2.453948 0.044395 2.752229 -0.339010 3.288431 0.920008 2.291295 1.644933 2.131604 0.036478 
his -5.370935 4.210606 -0.006988 -0.987292 -0.111367 -0.535604 -0.837690 -0.565507 1.793954 0.143354 
bad -0.747258 0.980340 0.669932 -0.943042 0.287024 -3.133135 1.150738 -2.046793 -1.029199 0.299694 
next 1.308649 -2.195199 1.331427 -1.463169 -1.550807 -3.298748 1.204860 1.776484 3.953932 1.927961 
didn't -3.754606 -1.389965 0.637142 1.265498 -1.014626 -1.784912 0.500731 -0.079665 1.692433 1.780968 
4 -0.457609 1.361290 -0.946754 -0.885089 -3.350478 -1.348820 1.620749 1.618726 1.097467 1.612482 
wish -2.675559 -2.778005 1.385489 1.349693 -1.167795 -1.247618 2.280624 -1.437026 2.134985 -2.265074 
tomorrow 2.316717 -2.297650 -1.147215 -1.644213 -1.538563 -2.522712 3.681923 -0.071451 3.907198 0.038730 
morning 3.320782 1.931767 0.141356 -2.476282 2.047517 -1.453449 3.818869 -0.960671 0.808480 0.417988 
were -2.689103 -0.899989 3.169378 1.227686 -1.399274 -0.667481 -0.057513 -1.148674 0.976310 -1.599506 
first -0.986383 0.605784 1.545120 -1.164698 -0.883818 -2.225731 -1.399828 -0.788836 2.749559 0.705205 
fun 0.865362 -0.547443 2.259551 -0.748040 0.221370 -1.028916 2.531066 -0.636715 1.200636 -2.037747 
It -0.170481 -0.528836 3.438388 0.151593 -0.086789 -1.086251 -0.873331 -1.483006 -1.587023 0.563388 
than 1.709408 -1.134888 3.163753 1.907272 -1.220716 -1.314709 0.621657 -1.759797 -3.733155 3.230111 
that's -1.672022 -2.238931 1.916567 0.376527 1.065162 -0.913099 0.327765 -1.515552 -1.742191 0.836666 
But 0.220613 -2.233709 1.574618 0.655300 -1.260374 -1.197308 0.975381 -1.177745 -1.206514 0.471584 
better 0.445189 -0.994609 1.395683 0.239649 0.604841 -1.515405 2.277947 -0.798955 -1.584325 1.302302 
she -6.604549 2.356072 0.688411 1.448144 -0.971285 -1.133742 1.116669 -1.189904 -0.145916 -0.613434 
even -1.163177 -1.412913 1.341026 2.161130 -0.719021 -0.969316 0.951400 -2.110180 -0.349437 1.728043 
who -4.934073 2.184503 2.186745 1.288220 -1.617225 0.517186 0.741083 2.506773 -1.103006 1.434292 
you're -1.390472 -1.950138 3.315375 0.301731 2.063939 -0.111594 2.781373 0.571951 -0.998897 -0.678528 
people -2.294635 0.467587 3.537429 1.977981 -0.733429 0.337383 1.275671 1.639186 -1.707943 2.145429 
though -0.262624 -1.362996 1.336397 0.678818 -0.352551 -1.621537 0.430099 -1.740715 0.688880 1.312266 
3 -0.622131 1.684064 0.032776 -1.102163 -4.204281 -3.749444 -0.354610 0.546023 0.215194 2.774130 
Good 3.063418 0.397370 1.958969 -5.005943 2.965122 -1.699338 2.820565 2.616122 -0.141348 0.194873 
again 0.322333 -1.230156 -1.253949 -0.810002 -0.010044 -1.275384 2.085451 -0.574947 2.681192 1.457691 
gonna -0.848481 -2.117598 -1.956527 -1.359286 -0.907751 -2.402621 3.129189 -0.196480 1.672934 -0.234496 
week 2.152458 -1.058402 1.306615 -0.814871 -1.141838 -3.440854 1.704240 -0.593177 2.498173 1.261137 
down 0.322458 1.064824 -1.090174 -0.122414 -0.932625 -1.458737 0.139305 -2.375954 2.449565 2.702791 
wait 0.955738 -6.659870 -1.314979 0.647022 -3.786792 0.646626 1.794649 -1.358691 3.982203 -0.944765 
! -0.005003 -1.564538 -3.575133 -3.774663 -0.145194 0.789466 1.626247 0.198302 -1.077732 -0.125143 
No 1.427289 0.077467 2.383528 0.356718 -1.430036 -0.478785 0.507942 0.339160 -0.610127 2.137191 
oh -2.267513 -2.687015 -1.714357 -0.724590 0.717278 -2.158244 2.265589 -1.711118 -0.904281 0.467218 
take -0.581816 -0.656111 -0.599716 1.965050 -0.552547 1.151736 2.158126 -2.047966 2.272573 1.224153 
So 0.160972 -0.957574 2.219865 -0.445916 -1.132093 -1.523425 0.861409 -0.380394 -0.853881 -0.612564 
days 1.850466 -1.430084 0.199623 -0.468464 -4.529696 -4.279499 0.381885 -1.178951 0.756222 2.097648 
made -2.205131 1.307090 2.021931 0.613153 0.970005 0.488456 -0.082987 -2.153234 0.514955 -0.385941 
Thanks -0.483125 0.174000 4.421445 -1.135979 2.535517 1.674173 1.852067 3.491544 1.394309 0.212498 
never -4.177595 -1.357352 1.800437 1.399521 -1.173698 -1.702842 -0.094357 -0.082037 0.531721 1.228462 
best -2.330840 1.543629 1.211068 -1.456811 0.190771 0.659776 0.069609 0.473450 1.517581 -1.269501 
working 1.849506 -0.409863 0.491912 -0.586009 0.678165 -2.330374 1.867930 -0.363910 2.143529 3.239413 
sad -2.452214 0.342781 -0.204205 -2.040241 -0.083459 -2.494980 -0.389202 -0.941345 -0.972296 0.289988 
say -2.540634 -1.673695 0.943306 1.244853 -0.258703 1.018585 2.313129 0.596151 -0.216941 0.084795 
happy -1.399150 1.202653 0.217242 -2.055906 0.328978 -1.054051 2.803098 0.472826 0.430580 -2.049106 
being -1.024289 1.399074 1.100964 1.013960 -0.218577 -1.953024 1.649569 -1.510739 -0.944588 1.847359 
@ 0.762915 0.833091 -0.965491 -1.472598 -3.116630 0.762369 1.946158 1.402674 2.311385 -0.402955 
into -0.299426 2.275083 1.517140 0.940324 0.154912 -0.499817 -0.269610 -1.996313 2.326420 2.512513 
A 1.718004 0.742387 1.406120 -2.214911 -1.689899 1.539489 -0.846132 -0.163029 -2.911186 -0.207706 
. -1.138991 -0.006548 -5.614291 -5.597443 1.426266 -1.331941 1.518389 0.367620 0.287778 1.959181 
always -1.726898 -0.228889 1.463082 0.944888 1.096914 0.230488 2.044171 -0.406761 -0.970428 0.897758 
long 0.454655 0.493567 0.868957 -0.857197 0.613076 -3.160297 1.580819 -1.298013 1.359489 1.260083 
it. -2.118860 -1.854887 2.476525 1.499707 -1.569726 -0.877525 -0.242371 -0.734651 0.099844 0.559101 
any -0.073799 -1.366151 2.708520 3.057888 -0.770322 0.690972 1.578187 -0.285785 0.377706 2.799203 
having -0.335725 2.713798 2.155270 -0.164697 1.429828 -1.312668 2.530007 -0.761200 0.624247 0.077283 
before 0.016529 0.516994 0.604046 0.664700 -1.845245 -2.373831 1.707945 -0.513810 3.391352 1.767602 
watching -0.460272 -0.589080 -0.455348 -2.354115 -1.908843 -0.724775 -1.722249 -3.103128 2.614163 -2.462980 
Oh -0.652325 -2.372683 0.930972 -1.022260 -0.138299 -2.213461 0.699182 -0.949871 -2.628452 0.291615 
why -2.825053 -1.821762 -0.438963 2.166822 -0.535807 -0.414528 1.476484 -1.237511 -2.321653 3.340384 
sure -1.646063 -2.285008 2.134592 1.124333 0.822906 -1.092462 1.988008 0.745524 -0.224799 2.067624 
doing 1.034274 -1.273716 1.181758 -0.482510 1.643988 -1.540728 2.298339 -0.862006 0.428820 1.151237 
him -6.218187 1.879351 -0.190991 0.168893 -1.851150 -1.915143 2.482027 1.681644 1.257562 -0.559234 
looks -0.971788 -1.487854 1.180599 -0.698153 2.569987 0.068309 -0.967142 -3.847556 -0.809706 -0.093384 
old -2.938395 2.904668 0.546616 -0.861761 -1.457375 -1.692751 -1.402862 -0.968814 0.655825 0.980246 
This 0.220661 0.561513 1.091736 -2.284607 0.946608 -0.350550 -1.009379 -1.252744 -1.508323 0.454965 
find -0.195919 -2.290356 1.388786 3.681320 0.137834 3.166992 0.975662 -2.498249 2.379305 2.340043 
;-) 0.589266 -1.211756 0.831756 0.017568 0.693295 0.413187 3.605642 0.881648 -0.384876 0.645319 
looking 1.621288 -2.054914 5.272423 0.356611 0.513361 -1.485377 0.954929 0.095621 2.906576 -0.200270 
We -0.977450 0.120311 3.774798 0.288339 -2.630135 0.059152 0.753281 2.076297 1.143175 -1.208831 
watch 0.036024 -3.923929 -0.184347 0.112554 -3.127892 0.332416 -0.589927 -2.464633 3.049719 -1.415736 
another 1.290678 -0.212250 1.197251 -1.507378 0.497407 -1.630826 0.443919 -0.182895 2.651891 1.520251 
twitter -2.622376 0.098577 -0.493836 -0.705889 2.572175 0.370833 1.815143 2.391944 1.229963 4.373435 
haha -4.003084 -2.399038 -2.188488 -0.529494 0.736416 0.180069 1.995072 -1.485699 -0.115977 -0.711287 
sorry -4.403149 -1.075304 0.578479 -0.316568 1.989542 -2.654907 2.572985 0.997180 1.253584 1.145573 
pretty -0.563007 -1.766186 1.729797 -0.486045 2.084885 -0.966610 0.124492 -3.164325 -0.105575 -0.580059 
weekend 3.104195 -0.666042 2.533135 -1.568588 -0.459526 -2.183367 2.387518 -0.604567 2.715708 -1.486313 
us -1.680920 1.005942 2.244625 1.272320 -1.701217 1.472836 2.527519 2.816321 0.999912 0.471709 
tonight 0.936363 -1.339405 0.945961 -0.317187 -2.919696 -0.904429 1.817232 -0.914593 3.073830 -2.233045 
sleep 1.619848 -0.966936 -1.352106 1.323856 -2.691308 -3.164905 5.844236 -2.195278 0.902417 0.322724 
thing -1.790921 0.304408 1.771648 0.670082 0.403347 -1.312512 -0.257492 -2.173074 -0.811141 1.269808 
bit 1.152910 0.715514 1.628439 -0.121160 2.012088 -1.984181 1.272549 -3.198989 -0.051230 1.213691 
Not 1.493318 -1.211745 3.045575 -0.421220 -0.577947 -1.694958 -0.503030 -0.895380 -1.896808 1.438663 
went -1.725354 1.173202 0.482223 -0.166722 -1.416539 -2.254275 0.386701 -2.218884 3.698050 -0.931274 
those -2.031648 0.604995 3.078816 1.557914 -1.225852 0.588626 0.392305 0.279680 -1.208851 0.586638 
done 0.950655 -1.057960 0.076708 -1.326406 1.336921 -2.650427 0.752923 -1.753390 2.759371 1.955957 
other -1.423185 1.893839 3.819554 1.748151 0.185097 0.012116 0.922115 0.518774 0.765517 1.847769 
show -0.957955 -2.571321 1.075443 -1.193744 -1.546366 0.789914 -0.290261 0.560306 3.052440 -1.681373 
1 -0.416079 1.118566 -0.642648 -0.893332 -3.839487 -1.783335 -0.564363 0.247929 0.769158 2.311259 
? 0.748279 -2.211706 -1.857172 -2.515931 0.784045 3.150842 1.223453 0.802679 -2.538613 1.266875 
hate -0.268211 -1.105708 -2.029347 0.781906 0.269901 -1.071641 2.583483 -3.767834 -1.210527 1.574658 
Have 2.226072 -0.875600 3.348462 -2.146739 1.412779 -0.509008 2.371958 1.965137 2.180409 -0.827621 
something -0.984608 -1.101627 1.853399 2.654738 0.180176 0.030482 2.300453 -0.540830 -0.726122 2.814937 
because -3.009625 -0.033061 0.587934 1.527400 -1.008850 -1.853649 -0.013154 -2.002637 0.289287 1.845899 
ready 1.966279 1.588522 -1.793705 -1.940151 -0.997716 -0.597559 3.445610 -0.104417 4.613039 0.214255 
few -0.637965 2.149135 3.438726 0.132898 -2.108165 -4.744643 0.659126 1.602149 1.637878 3.044534 
guys -2.183353 -3.381950 0.987477 -0.995318 -0.086842 0.827610 2.339909 1.924863 0.805374 -1.947721 
school 1.029477 -1.275486 -2.691957 -1.582975 -2.047853 -2.900211 2.274525 -1.669514 2.065400 0.879881 
it! -1.256523 -3.083452 2.178537 -0.156767 -0.929119 0.384473 0.205500 0.356118 0.221097 -1.129007 
What 1.833891 -1.283828 1.620641 -1.790179 1.408622 -0.003781 1.311450 0.485785 -2.497603 1.102112 
same -2.339759 0.323998 2.289760 0.881849 0.212792 -1.576509 0.108632 -0.800965 0.064130 1.421969 
their -2.613250 2.431324 2.068534 1.734516 -1.728416 1.569791 -0.747401 0.324834 1.077064 1.985777 
big -1.732889 1.746242 0.162090 -0.664429 0.335888 0.013204 -0.089141 -1.850228 0.338219 0.087410 
ur -4.097295 -0.562312 -1.279084 -0.506646 1.664931 1.723572 3.572278 1.215939 1.253048 -0.731368 
hours 2.313386 -0.102203 0.361085 0.819238 -5.623869 -6.028136 1.458653 -2.626411 1.729424 2.845587 
LOL -1.833038 -1.109916 0.403497 0.247444 -0.365493 0.513307 1.781528 0.169047 -1.939679 0.337233 
doesn't -1.851591 -0.021474 -0.140140 0.767674 0.916794 -0.180018 -0.362364 -1.062737 -1.165932 4.723630 
try 0.702213 -2.091417 0.864015 2.910136 0.438639 2.480674 3.636561 -0.421112 1.856102 2.421970 
awesome -1.336647 -0.893149 1.688272 -1.968463 1.567408 1.427834 -0.519626 -0.589679 1.856610 -2.041758 
keep 0.015855 -0.343944 0.161382 0.623012 1.806541 0.491680 2.785177 0.297520 0.594974 3.271946 
where -1.083227 -0.933048 0.468452 0.820723 -0.228490 1.317992 0.831934 -0.581312 -0.389715 1.145169 
things 0.726452 -0.088387 2.521704 1.330782 0.154631 -0.770314 2.523712 -0.132999 -1.558728 2.056818 
cool -1.005327 -1.534423 1.149386 -0.757571 1.775317 0.990929 -0.019845 -0.960020 0.701794 0.121839 
start 3.014678 -1.212674 0.700422 -0.153825 0.295087 -0.636676 2.489661 -0.968740 1.849302 1.573433 
thought -4.020517 -2.206511 2.517926 1.363859 0.716159 -1.216799 -0.516916 -1.452671 1.188097 0.552289 
cant -3.668577 -4.858750 -5.932208 -1.227120 -0.446188 -1.995025 1.657813 -0.842670 2.539082 3.712186 
bed 1.808930 0.287330 -2.174040 0.292432 -1.141559 -2.718799 5.849250 -3.189845 2.073946 -0.253699 
x 0.303182 -2.744012 -1.812329 -2.458636 1.897467 0.643347 3.070637 -0.385842 0.375106 -0.842533 
Now 1.238958 0.998375 0.815122 -0.388281 -1.360047 -0.002936 0.412481 -1.140063 1.318905 0.441259 
dont -4.112603 -2.558864 -3.830873 1.413340 -0.754243 -0.284456 3.570905 -1.263780 -0.353175 2.026730 
while -1.037799 2.232688 0.568184 0.440185 -0.213901 -1.244806 0.594508 -2.150066 3.092212 1.076136 
soon 0.660875 -2.337454 -0.356342 -1.151064 1.071475 -0.566072 2.913724 1.469364 3.101373 1.764603 
saw -3.934209 -1.648396 0.880843 -1.570502 0.418215 -0.237544 -2.740550 -1.970139 3.621715 -1.744753 
since -3.153833 1.645873 1.634092 -0.747465 -0.652861 -5.714559 0.443982 0.204095 2.871539 1.983125 
two -0.663905 1.413759 3.006611 0.102353 -2.970807 -3.162429 -0.828680 -0.700514 0.524750 0.714996 
already -1.779921 0.301914 1.052776 -0.148728 -1.264934 -2.423446 0.607537 0.308013 1.161744 1.247725 
wanna -1.838263 -3.421801 -3.720028 0.271293 -1.700172 0.470462 3.925752 -0.732597 0.951966 0.103020 
coming 0.417922 -1.024108 -0.452238 -1.547512 0.094930 0.284426 1.951124 1.121539 1.741247 0.496200 
might -1.182409 -1.636292 0.943294 0.641560 0.697540 -2.008804 1.300462 0.118885 1.917266 3.067822 
today. 2.295879 1.270890 0.788097 -1.045142 -1.103999 -1.623959 1.210954 -1.698092 1.361358 0.245544 
until 0.587979 -1.673954 -0.494760 -0.324725 -3.810646 -3.442247 1.364934 0.722992 2.731547 2.421741 
Twitter -0.184523 1.760067 2.971649 -0.651875 2.080446 1.705932 1.010141 3.762403 -0.501953 4.648627 
let -2.473466 -2.131237 -0.000021 2.692727 -0.586987 1.637099 3.124006 1.284037 1.514846 2.868854 
makes -1.089174 -0.473938 -0.043496 0.542665 1.308141 0.989847 0.713697 -3.056814 -3.038463 1.234253 
life -0.010383 0.746157 0.288949 -0.574473 0.933974 -0.376539 1.568758 -1.110071 -1.731869 1.173481 
song -0.644394 -2.847299 -1.513966 -3.137975 1.209355 3.255450 -2.354088 -2.712001 -0.353987 -1.123871 
won't -1.390064 -2.105221 -0.064852 0.570900 -1.252346 -2.500386 1.328539 1.413126 1.659013 4.202631 
found -2.500233 1.502143 0.812160 -0.155419 0.544999 0.909541 -2.201680 -2.186194 1.861935 1.099423 
ever -3.426046 -0.489067 1.670698 -0.002310 -0.292233 -0.874177 -0.842561 0.129187 -1.049351 1.216682 
http://tweet.sg 0.116708 1.927912 -1.983097 -0.286757 -1.449494 -0.147793 2.393016 -2.322912 -0.326138 0.372186 
me. -2.720084 1.433739 1.442213 1.402760 -1.697940 -0.892371 2.041779 1.121509 -1.502025 1.454469 
If -1.803971 -2.284170 2.466816 2.011519 -1.187110 1.358265 1.304867 2.281262 0.153974 2.111866 
feeling 0.942074 0.888617 1.029504 -0.264207 1.241437 -3.566430 4.457551 -2.445365 -1.866014 -0.037743 
lost -3.035581 0.226944 -0.915881 -1.768227 -2.467796 -3.566418 -3.384664 -1.872192 2.029370 2.362893 
around 0.178609 1.998867 0.721597 0.582511 -0.863903 -1.557689 1.768848 -1.239040 1.854087 1.533434 
.. -0.659804 -1.181202 -3.381726 -2.503550 -0.142171 0.043397 1.131609 -0.745055 -0.192523 0.728626 
That -0.265938 -1.913444 3.220030 -0.794782 0.730080 -0.110741 -1.234435 -1.552874 -2.822005 -0.199847 
friends -1.639839 2.217969 2.120825 0.557798 -1.816876 0.799397 2.355675 1.759390 1.156431 -0.965349 
use -0.205910 -1.354017 1.981447 3.328003 0.769562 3.443361 -0.052064 -1.427845 0.019481 4.640990 
must -0.768394 -0.716501 0.354437 -0.834433 1.017444 -1.753671 1.274876 0.431476 -0.445945 2.414881 
Love 0.487076 -1.617257 1.146940 -4.127739 2.170084 3.398296 -0.068297 1.162462 -0.848717 -2.042423 
away -1.693682 2.112792 0.200441 -0.331380 -1.845392 -3.296308 1.332294 0.307159 0.816159 1.797117 
trying -1.135791 0.296202 -0.615128 0.574651 1.164832 -1.435899 1.744099 0.080914 1.888453 4.824201 
actually -1.539383 -1.371132 1.926745 0.681741 -0.071298 -1.807597 0.117851 -1.687314 -0.008991 0.815090 
now. 1.190736 0.173140 -0.296721 -0.264102 -1.468813 -1.202630 1.741911 -1.253914 -0.126899 1.019510 
many -1.631270 0.582404 3.875156 0.767293 -0.458846 -1.401415 0.681637 1.200524 -1.383077 1.389713 
also -1.439323 -0.424446 1.218939 0.611871 -0.343242 0.690690 -0.933412 -0.984681 0.686827 1.497448 
check -0.324298 -2.220851 -0.169577 -0.327425 2.346177 4.299753 0.195536 0.230984 5.218352 1.953547 
give -1.195837 -1.428167 0.398547 2.859733 -0.272744 3.554324 3.034160 -0.213887 1.877036 1.023968 
left -1.179010 1.799822 -1.632289 -0.369057 -1.822202 -1.344032 -0.195962 -2.364533 1.515820 1.566720 
Hope 1.279783 -0.252149 2.430102 -2.557786 3.656336 -1.785689 4.382746 2.055625 0.552685 -0.061196 
said -5.368406 0.307437 0.029776 0.891132 -0.470400 0.021823 -0.047405 -0.354544 0.427944 0.904385 
hear -1.618304 -2.397936 1.537820 0.158178 2.469805 -0.042385 2.162627 -0.368328 0.848288 0.087256 
everyone -1.119453 0.815178 2.087564 -0.133260 0.246387 -0.649449 4.429299 2.988334 -0.281196 0.102377 
cute -4.787200 0.275125 -0.064185 -2.316403 2.781178 0.828768 0.082789 -3.292880 -0.727842 -3.212103 
least 0.199040 -0.769168 1.426511 0.675010 -1.994071 -2.982563 1.812843 -0.570834 0.630512 1.123532 
guess -1.332643 -1.828701 -0.390463 1.574763 -0.560664 -0.730452 2.106107 -1.520349 -0.083497 1.765913 
live 0.192190 -2.641865 1.212818 -0.154114 -1.981587 1.188650 -0.585804 0.232753 1.246427 0.248946 
game -1.017634 -1.728581 -0.135088 -2.018790 -5.034670 -2.702123 -2.574550 -1.399093 2.861381 -0.962464 
stuff 0.561934 0.113039 3.158948 2.070298 0.148516 0.823321 1.457173 -0.896530 1.620829 1.198281 
does -1.791277 -0.985152 -0.532888 1.368612 1.250212 1.725759 0.560108 -1.502532 -2.874156 4.078943 
follow -2.762085 -0.038013 0.909481 0.635055 1.949973 4.221923 4.458836 4.194727 0.652588 1.851934 
thank -2.283715 0.486300 1.574782 -0.686520 3.656198 1.741355 3.976820 1.020745 0.530609 -0.965143 
&lt;3 -0.176475 -1.760102 -2.675549 -3.917293 0.039768 1.668160 1.795557 -0.018851 0.221441 -2.488513 
Happy 0.720380 3.803892 3.077606 -5.659495 -0.802392 -0.806739 3.200768 4.548908 -0.259594 -3.705764 
help -0.182452 -0.847314 0.511473 3.367046 0.534348 4.087066 4.311321 0.279179 0.851465 2.611644 
year -0.667829 -1.374724 0.920209 -0.772751 -3.814861 -3.287529 -1.215195 -1.096222 1.354129 0.130006 
read -1.310384 -3.543394 1.623701 0.589296 1.554082 0.430233 -1.031467 -0.966562 2.075679 2.541413 
play -0.305254 -3.141550 -1.128262 0.546583 -2.574804 0.950847 -0.091701 -2.143038 2.270508 -0.036993 
which -0.345208 -0.377785 2.619790 1.989100 -0.503195 -1.278827 -0.410059 -1.977804 0.254340 2.891353 
How 0.621768 -1.716503 2.655714 -0.936939 0.331023 -0.168911 1.881774 2.096918 -3.697143 1.220333 
most -0.465013 0.356291 3.793808 -0.737441 1.091872 -1.158064 -1.253803 -0.910646 -1.324541 0.671673 
;) -0.941018 -2.574484 -0.267051 -0.878415 0.671563 1.169847 1.741172 0.321736 -0.115995 -0.264832 
such -1.340765 0.522795 1.893829 -1.744135 2.446884 -1.054865 0.600076 -2.107875 -0.836162 -1.712945 
put -1.398831 0.063541 -0.215229 2.262995 1.355519 2.724645 0.951440 -3.409842 2.384763 1.307100 
beautiful 1.118745 -0.294801 0.355513 -3.553550 4.383749 0.816373 1.679346 -3.132501 0.581772 -2.846771 
maybe -0.129742 -1.842442 0.626328 1.988178 -0.674855 -0.203817 2.766132 -0.785749 1.025486 1.630684 
call -1.738150 0.740022 -1.145089 1.405325 -1.582927 1.405093 3.103405 0.521178 2.079698 1.138703 
lot 0.426264 0.429544 4.206253 1.388036 1.147883 -0.722543 1.335884 -0.568614 -0.536454 1.628404 
Is 2.544041 -0.914940 -0.071341 -1.875406 -0.187029 1.424422 0.588718 -0.330529 -1.856921 1.095340 
missed -2.106519 -1.594747 1.111409 -1.778250 -0.282995 -2.340081 0.199368 0.749382 3.004348 -0.629224 
5 0.181918 1.395932 -0.020979 -1.810503 -4.358227 -4.347742 -0.383816 1.031357 0.133391 2.968512 
early 1.452651 1.166801 -0.879831 -1.483301 -1.293947 -3.777052 4.704003 -0.077988 3.168448 0.281479 
please -2.940416 -1.841321 -1.275830 0.291785 0.246468 3.795269 3.297894 3.859510 1.377293 2.594402 
I'd -2.005456 -2.240483 4.189673 2.079299 -1.188768 -1.170960 0.360350 0.707394 0.295820 1.279196 
weather 5.849894 -2.031872 1.870644 -1.850133 2.711349 -1.820487 2.014626 -5.153938 -1.250239 -0.234445 
tweet -1.609238 -1.700653 0.731313 0.050258 1.124629 0.229575 2.289047 2.224485 2.173502 2.116530 
may -1.097594 0.504529 0.016879 -0.638961 0.122366 -1.501989 0.804294 0.991871 0.153534 3.292747 
That's -0.515122 -1.859920 3.935614 0.054666 0.469205 -0.330941 -0.276377 -0.614937 -2.671526 0.072956 
movie -1.406225 -3.433495 0.766156 -1.617713 -2.159866 -0.223959 -2.145710 -3.011081 2.726823 -3.466610 
phone -3.731252 1.540278 -1.953132 1.169512 -1.400542 -0.639978 1.173014 0.699285 3.114065 4.659204 
he's -5.230513 3.122811 0.581202 -1.054660 0.566675 -2.622475 1.083366 -0.010314 -0.613661 0.141671 
tell -3.009322 -1.697071 -0.162974 2.340841 -0.253879 3.516140 2.797346 0.670581 -0.445424 1.170360 
yet -0.851669 -1.784795 1.128645 0.361247 -0.243251 -2.451354 -0.362719 -0.802859 2.110183 2.958024 
Got 1.883222 0.870880 0.004761 -2.740034 0.344434 -1.104917 -0.712778 -1.668394 3.090248 0.701244 
these -1.160960 0.690784 2.603738 1.277934 -2.238932 -1.882697 1.288463 0.508470 -2.192474 1.500519 
In 3.007138 0.790775 1.011095 -1.812561 -1.584249 1.070717 -0.255955 -0.272672 -1.059197 0.841113 
hot 2.632712 0.610387 -0.243330 -0.050229 1.113871 0.958852 2.747128 -5.419875 -1.925826 -1.396705 
@mileycyrus -4.492320 -5.946537 -1.135974 -1.405450 3.329185 4.639765 1.116214 -4.189128 -2.288384 -3.900257 
, -2.082337 -1.863759 -5.040496 -3.722917 0.585967 0.563426 1.205579 0.339229 1.376624 1.124538 
making 0.344974 1.416816 0.914376 1.014712 -0.089035 1.426516 1.328017 -1.797092 -0.065891 0.786372 
New 2.654305 -1.986035 0.181503 -5.410830 1.343720 0.837482 -3.193140 1.283439 1.746780 2.962054 
Can't -0.522637 -4.607592 -2.124364 -3.063032 -1.584358 -2.834274 -0.216710 1.863604 1.698150 2.841829 
someone -4.035401 0.852400 0.962687 2.999102 -1.018093 0.412368 2.312324 0.547761 0.225909 2.397712 
forward 4.304694 -6.669380 4.146008 -1.061927 2.648716 -0.291844 0.661247 -2.412416 6.755825 -0.940891 
hard 0.000490 -0.318082 0.051265 0.430167 0.785215 -1.271324 1.596847 -1.314381 0.234441 2.877218 
you! -3.038480 -0.882891 3.411060 -0.627934 0.515463 0.220576 3.839359 3.762717 -0.250476 -2.162165 
finally -1.109343 0.900885 -0.031559 -1.329498 -0.462479 -2.329096 0.425184 -0.654091 3.482968 0.594433 
car -2.046416 3.665354 -0.261145 2.031456 -2.210878 -0.722567 0.186928 -3.653927 2.818609 1.683716 
friend -4.096519 2.877837 1.269560 -0.400855 -0.695649 0.832497 1.277787 1.103656 1.593389 -1.773556 
isn't 0.094428 -1.550322 0.210710 -0.247532 1.658312 -0.447216 -0.578847 -2.099524 -0.898099 3.391689 
house -0.002346 3.672682 0.390981 0.892040 -1.778381 -0.921745 2.370842 -2.216858 2.047072 -0.076989 
sun 4.770903 -0.981606 -0.473028 -1.057336 3.172168 1.156791 3.077691 -5.794454 0.826855 -0.869000 
free 0.999906 1.850888 1.749103 1.245474 -1.427866 2.636449 1.565172 1.904674 2.073815 2.952242 
glad -2.660598 -1.422374 2.728767 -1.588860 2.282125 -2.669044 2.114820 1.217179 1.886097 -1.282254 
pic -3.843369 -0.877574 -0.040949 -1.111110 2.986322 2.323200 -0.194505 -1.280233 1.808871 -0.790054 
later 1.965797 -0.538601 -0.410534 -0.478517 -0.531353 -0.776166 4.711446 0.936715 3.725295 0.629697 
every -0.282378 0.623922 0.549681 -0.894848 0.024035 -2.547671 0.327622 0.106641 0.064228 3.252228 
through 0.384421 0.918179 1.576050 0.866530 0.322069 -1.082702 0.549910 -1.398641 3.201721 2.723883 
w/ -0.746412 3.534738 0.509903 -0.209794 -2.017159 1.204325 1.635994 0.847574 1.439628 -0.178862 
haven't -4.857792 -1.115542 3.256633 -0.156795 -1.450100 -6.275811 -0.406837 2.321604 2.935084 2.668369 
myself -0.371770 0.612234 1.002255 2.097051 -0.680608 -1.112566 3.235401 -1.688843 1.518749 0.693746 
party -0.318200 0.919683 0.503291 -0.542957 -3.059176 -0.057370 3.617668 0.211781 4.080925 -3.710942 
yeah -3.073930 -2.747001 -0.774066 -0.404256 0.769545 -2.108152 1.676295 -0.868640 -0.006410 0.781367 
playing -0.316546 0.320117 -1.611464 -2.414222 -0.578654 -0.200358 -1.840581 -1.900169 2.101877 0.945590 
summer 3.529856 -2.240307 -0.599642 -1.604981 -1.049859 -1.594851 0.773194 -3.184732 1.256679 0.142202 
buy 0.022344 -2.531184 0.982246 4.316932 -4.069211 4.213249 0.231177 -3.396182 2.078569 -0.164331 
late 0.034974 0.820519 0.791530 -0.554663 -1.385776 -3.455667 3.286099 0.636535 2.224839 0.270212 
hair -1.569399 -0.731485 -1.653796 0.197588 2.528892 1.079646 1.690670 -6.473008 1.401420 -1.971529 
n -2.326118 2.778906 -4.453816 -0.257195 -1.476729 1.245371 4.141816 -1.341803 1.634879 -0.245902 
sick -0.781457 1.827275 -1.271686 -0.621918 -0.414278 -3.854481 3.763808 -2.187667 -1.118838 0.544463 
listening 1.930280 -1.435473 -2.837612 -3.144129 1.355438 3.550218 -1.032197 -3.670702 1.202888 -0.482958 
used -2.159320 0.013663 1.477661 1.138558 0.798527 -0.324047 -1.270101 -1.903107 -0.182862 3.068808 
end 0.703747 -1.339214 0.879607 -0.004180 -1.396688 -1.298291 0.064582 -0.939846 1.936458 1.394357 
amazing -1.198824 -1.618377 1.602807 -3.141231 2.182420 0.718925 -0.594221 -1.222998 1.472419 -3.281715 
baby -3.533822 3.738822 -0.263355 -1.699379 -0.581112 -1.705205 1.677914 -0.708238 0.742434 -2.020406 
+ 4.230931 0.429468 0.891614 0.586036 -2.925160 3.508917 0.090200 -2.749069 -0.767660 0.657403 
Hey -1.732817 -2.620313 1.656752 -3.261217 2.294577 1.828865 1.451327 4.023521 1.844482 -1.258396 
Thank -0.617185 -0.186122 3.059276 -2.056568 3.572183 3.237109 3.198811 3.107830 -0.381055 -1.577150 
rain 5.017307 -2.121242 0.215454 -0.628279 0.256340 -1.552599 1.617903 -4.943947 -0.094076 0.862915 
At 3.318731 -0.069023 1.145857 0.313709 -3.638200 -0.462853 1.360429 -2.703877 0.995221 -1.107778 
waiting -1.034806 1.981416 -1.242863 -0.421882 -0.781303 -0.792018 0.785895 -0.505048 3.613825 2.413325 
girl -3.424289 1.922870 -0.542186 -1.334359 0.302267 0.338770 1.486433 -0.975272 0.049526 -2.161976 
far 0.663847 -1.145407 1.682472 -0.522632 -0.338322 -2.790936 -0.167142 -1.684267 -0.593838 1.504503 
too. -1.321190 0.006009 3.894951 0.865476 -0.232947 -0.037833 0.149284 -0.474339 -0.396662 -0.598723 
video -1.645127 -2.911289 1.044532 -1.510875 0.000603 3.100560 -3.543247 -0.077442 3.648185 0.427398 
music 0.807908 -2.407657 -0.397792 -0.566451 0.792095 4.206531 -1.285982 -2.670496 1.666788 0.205836 
gotta -0.671206 -1.468921 -2.963823 -0.505951 -1.202784 -1.643448 3.384506 -0.292889 1.885100 1.473760 
Going 3.094476 0.836459 -0.218950 -1.833336 -1.774978 -0.593017 2.880396 -0.610479 4.301717 -1.249469 
almost -0.438854 0.446812 0.884615 -1.051726 -2.032660 -3.793361 0.163125 -1.007421 0.258571 0.563433 
without -1.119281 0.736396 0.172365 1.487361 -0.549742 -0.268787 1.595364 -1.527970 0.525067 1.736846 
ya -2.292800 -1.101379 -1.614746 -0.848087 0.061431 0.494156 4.908555 2.748479 1.266382 -0.056416 
sounds 1.236180 -2.127696 4.294250 0.893876 1.744665 -0.338420 1.412953 -2.674900 -2.060370 -0.692941 
probably 0.052417 -2.686224 2.007802 1.727389 -0.505703 -2.095644 1.089129 -1.412557 0.803850 2.392100 
= 4.073995 0.837329 -0.813053 -0.547991 -1.514666 2.431388 -0.055807 -2.950202 -2.568676 2.760456 
#seb-day 1.336089 -0.232951 -2.612415 -1.478145 2.164967 7.469637 7.595605 -2.165039 -1.515445 0.288479 
All 1.803786 0.207269 1.921317 -1.045708 -0.788451 1.503142 0.954991 1.382267 -1.694306 0.687223 
lovely 1.483105 2.170871 3.060999 -2.402429 4.950463 0.060987 2.318360 -2.093411 1.302802 -2.057547 
we're 0.691225 -0.777756 2.092931 0.514089 -2.168966 -0.911605 2.186903 0.596016 0.094657 -0.199170 
seen -3.886348 -3.791790 2.897290 -2.331427 1.925847 -3.800975 -4.348194 -1.567743 3.934785 0.828226 
lunch 2.343958 2.753945 3.740484 1.739681 -2.005840 0.455455 4.223831 -1.768163 3.153998 -2.987299 
blog -0.776420 -1.572991 2.598424 -1.911101 4.098278 1.960984 -0.659081 2.839456 4.960272 3.485262 
thats -2.939761 -2.789875 -1.902960 -0.344209 1.717231 -1.371330 1.646722 -3.653971 -1.294620 0.247042 
yes -1.215515 -2.279083 0.956327 0.207519 1.641806 -0.736145 2.097131 -0.694147 -0.799006 0.876462 
day. 2.838981 1.727974 2.084343 -1.318786 0.199361 -2.081411 2.453416 -1.441918 0.322305 -0.611148 
till 0.683874 -3.127898 -3.344283 -1.193346 -4.341061 -3.762127 2.748201 0.298506 3.543354 2.269717 
stop 0.531253 -0.698264 -1.461815 2.177005 -1.352221 2.091698 2.595592 -2.445829 -0.091277 1.608759 
real -1.083442 1.407352 1.677550 0.024247 1.323589 0.433270 1.177233 -0.281778 -1.550411 1.105409 
weeks 1.810255 -2.453576 1.870812 1.053162 -4.502850 -5.338390 -0.914894 -2.887874 2.190349 3.017255 
tired -0.184897 -0.135855 -2.374070 -1.756654 0.352051 -4.084847 4.030569 -2.628407 0.800415 -0.305192 
head 1.148560 2.288579 -2.019141 -0.438390 1.589160 0.013103 3.056319 -3.253087 0.558201 1.376844 
yesterday -1.936285 1.678894 2.670290 -0.003058 -0.865706 -2.842000 0.121301 -1.204465 3.091058 -0.676413 
eat 0.320255 1.019202 0.425340 4.599006 -3.464674 2.232953 5.451491 -3.394842 0.072438 -1.565181 
:-D -0.359808 -1.262010 -0.741025 -1.480393 -0.800256 -0.746499 3.192876 0.534035 0.314795 -1.416113 
totally -3.099970 -1.549244 1.704731 0.406696 -1.087113 -1.503348 -0.052373 -0.944686 0.279563 -0.829167 
nothing 0.418284 -0.364441 1.515810 1.125244 0.184027 -1.811353 2.306217 -1.057423 -1.743891 2.460841 
enough -0.611105 -0.317627 3.048219 2.558534 -0.112938 -2.219204 1.018598 -2.339334 0.948289 2.150033 
man -3.166598 2.273365 -0.655175 -1.359105 0.021703 -0.514924 1.014997 -0.945516 -1.460670 -0.881152 
you. -2.742038 -0.888466 3.144289 0.216427 0.099994 0.591672 2.150000 2.627666 -0.617168 -0.675825 
wanted -4.318082 -1.552936 0.073545 0.415386 -0.359828 -0.193870 1.030466 0.362045 2.984376 -0.230549 
both -2.328511 0.197802 2.584556 0.124268 0.023941 0.397788 -0.127492 -0.269394 -0.112873 -0.672028 
Me 0.685200 -0.374183 1.269196 -2.705668 -1.326563 3.450969 0.054936 0.741812 -1.467884 -2.764958 
leave 0.439556 -1.162499 -1.232338 1.250179 -1.199185 0.223388 3.888964 -0.711383 3.513084 0.941488 
On 4.054900 1.977201 -0.029647 -3.723249 -0.502153 1.468602 -0.689785 -0.321298 1.294287 0.938148 
They -2.342599 -0.588112 3.852017 2.365859 -2.961605 1.102699 -1.024675 -0.448649 0.126278 -0.403764 
He -6.044333 4.282573 2.758969 -0.028711 -1.860639 -1.543550 -1.413811 -0.810294 -2.550108 -0.952682 
kids -0.742737 2.820819 2.320354 1.625223 -1.958900 -0.588880 2.741005 -1.054418 1.683682 -1.355982 
Don't -0.454409 -2.247138 1.804920 0.760356 -2.110330 0.559114 1.876396 2.836203 -2.123598 1.912356 
Im -0.078757 -1.420762 -2.167167 -1.173820 -1.642515 -1.872769 3.339106 -1.072849 -1.491159 -0.413196 
dinner 0.926748 3.186386 2.953184 1.797426 -3.763207 0.418232 5.013726 -0.955208 3.072119 -4.067100 
mean -1.858588 -2.215459 -0.586084 1.732441 0.096887 1.451745 1.703046 -1.578616 -1.643059 1.767165 
years -2.929594 0.407206 2.561166 1.310750 -6.380638 -5.160727 -2.602842 -2.081931 0.406845 1.188104 
Had 1.261022 2.875974 3.761250 -1.622009 -0.271376 -2.595115 0.792812 -2.365005 3.756812 -3.170287 
job 0.820918 -0.691298 2.341445 0.581597 -0.034991 -1.410078 1.311944 -0.150006 1.397650 1.782658 
post -1.583118 -2.028784 1.577698 -0.813679 3.346627 2.408773 -0.611907 1.334718 4.895658 2.666028 
enjoy 2.739729 -2.100635 1.561514 -0.369047 2.861280 1.650161 3.329365 -1.182893 1.878989 -0.429494 
run 1.973593 1.561082 0.461232 1.321146 -0.941105 -0.214735 1.335771 -2.680416 2.161372 2.466876 
Back 4.664362 1.066437 -0.003248 -2.823450 -1.074103 -0.923865 1.758293 -1.196537 2.203273 -0.090619 
Great 1.805056 -0.658651 3.824901 -3.751327 2.194013 1.135089 -1.061456 0.883927 2.204670 -1.610800 
believe -0.934089 -4.873835 -0.520525 1.862258 -2.877051 0.307511 -0.027385 -3.217710 0.740546 0.155494 
whole -1.022420 0.660146 1.122676 0.186800 -0.407297 -2.033603 -0.661061 -2.012950 0.628469 1.830903 
gone -1.004241 0.786677 0.466355 -0.986243 1.122576 -2.967659 0.420304 -1.472957 1.824371 1.729533 
hey -4.199236 -2.186996 -0.637745 -1.772189 3.212784 0.627878 3.325471 2.168177 1.853090 -0.300371 
U -2.534161 -1.571188 0.513021 -0.785274 -3.310039 1.842925 3.855386 4.888264 -2.828454 -1.162821 
b-day -3.085859 1.364546 -0.491024 -0.625021 -3.530386 -0.531913 5.585159 1.509215 4.499962 -4.967880 
too! -1.221624 -0.920829 1.841116 -0.513114 0.591633 0.759274 1.638451 -0.298460 0.432561 -2.259170 
it, -2.641988 -3.508546 2.151933 2.140126 -0.958360 0.408518 0.191881 -0.383802 0.481679 0.946012 
she's -4.315138 3.009546 1.067989 -0.555783 0.328591 -1.450099 2.156300 -0.031011 -0.888569 -1.307431 
Sorry -2.418959 -0.986911 3.248880 -0.434912 0.206899 -2.964576 2.124545 2.803010 1.553781 0.445232 
finished 1.622214 -0.507314 0.987738 -2.078954 -0.292690 -1.495378 -2.798661 -4.075604 4.810803 -0.120245 
hour 2.107418 0.890297 0.694984 0.747226 -3.614887 -4.317527 0.664766 -2.431862 3.264894 3.192151 
times -0.441700 -0.716875 2.153389 0.768909 -3.653677 -3.159108 -0.586875 -1.629250 -0.111339 0.565242 
says -2.984104 1.231326 -1.953243 -1.044249 -0.261930 0.544650 -0.562970 0.224573 -0.236688 3.170051 
meet -0.922872 -2.126455 2.188886 0.768349 -0.733205 1.592938 4.354544 1.740793 3.064902 -2.948998 
anything -2.376745 -2.265909 2.101726 3.032035 -1.429352 -1.292708 2.287531 0.886860 0.211348 3.027826 
bought -3.481183 0.421101 1.345494 2.012983 -2.881622 1.715740 -3.562120 -4.143715 2.694843 -0.419996 
came -2.616302 1.071657 -0.748129 -0.744922 -0.525572 -0.995140 -1.262292 -2.399252 3.790162 0.377813 
name -5.217978 0.650269 0.246938 0.103416 1.644225 3.092427 -1.824298 -0.588991 -0.419488 1.750805 
me! -2.004446 0.431096 0.842659 0.323619 -0.939840 0.050573 3.266109 2.130140 -0.069813 0.152294 
took -2.772455 1.823910 -0.344566 0.036094 0.188201 -1.803243 -0.817297 -2.997892 3.259020 1.441211 
Still 1.041224 0.369627 0.668455 0.027462 -0.397749 -1.923275 0.896725 -1.838057 0.502026 1.938006 
poor -4.416851 3.168358 -0.497118 -1.142050 0.380928 -2.620084 1.253810 -1.842039 -1.394608 -0.443586 
missing -0.836114 0.705702 -0.461823 -1.858892 0.101672 -0.959813 0.812820 -0.448833 1.511939 -0.020500 
own -1.440410 2.090640 1.893116 1.337834 0.282764 1.936899 0.297131 -0.456912 0.842197 1.691260 
thinking -0.712347 -0.789316 0.793910 0.164217 0.209375 -0.837641 1.219732 -0.846987 -0.522352 1.008224 
luck 2.462132 -3.558478 1.806359 -1.336008 0.928593 -0.941897 3.193641 0.542488 0.373771 -0.567952 
excited -0.105960 -2.932696 -0.894709 -3.068791 -0.007975 -2.245322 1.096051 -0.211398 3.088138 -1.144897 
funny -3.468607 -0.766046 0.134042 -1.010024 3.038373 0.563457 -0.306406 -1.893995 -0.019191 0.172331 
LOVE -0.616761 -3.496387 -0.214187 -0.811125 -1.712231 4.186493 0.257240 -0.865410 -1.890958 -2.034386 
seems 0.317869 -0.795335 1.769895 -0.067719 2.258640 -1.643467 -1.039303 -1.707268 -1.079304 4.976123 
place 0.196453 1.086446 1.369714 0.072576 -0.527471 0.336464 0.267557 -1.419929 2.114537 0.063370 
quite 0.256053 -0.211296 4.517630 0.108990 1.918624 -2.471976 -0.385858 -2.719519 -0.724527 0.542808 
Day 4.023079 4.453437 4.695112 -2.784637 -3.676327 -0.346154 1.639506 2.660264 -2.603943 -1.175870 
taking -0.858745 2.461414 -0.975268 -0.219666 0.393627 -0.750384 1.776582 -1.110994 2.379627 1.841025 
food 0.474357 4.130990 3.141431 3.186332 -2.460633 0.652357 3.894753 -2.184686 0.920601 -1.324379 
10 -0.365911 0.649971 0.360053 -0.950884 -4.998742 -4.582699 -0.774535 0.963261 -1.073159 3.874126 
there's 0.767343 -1.064277 1.328339 1.033235 -0.418108 -0.548364 -0.158578 -2.255173 -0.872023 2.541710 
r -2.049299 -0.453253 -2.482616 -0.511955 0.053645 1.298217 4.761118 0.702628 -1.699240 -0.234068 
stay 1.487347 -0.615361 0.761761 2.823478 -1.562069 -0.079123 5.363664 -1.222586 1.670564 0.438446 
world -0.094571 0.780171 -0.167917 -0.677753 0.314307 1.687392 0.634054 -0.497797 -0.914884 1.140239 
full 0.449747 1.623957 1.145520 0.664204 -0.404428 -0.670690 -0.141673 -2.593258 1.185349 1.808042 
wasn't -2.241203 -1.596190 3.553861 0.867245 0.615153 -3.267894 -0.763785 -2.440926 0.652220 0.557138 
Its 0.909720 0.174001 0.012574 -2.166663 -0.265706 -1.762249 1.299838 -1.219203 -1.909401 -0.417164 
cold 3.692054 1.051611 -0.959212 -0.806950 0.576478 -1.774815 3.043175 -6.101722 -2.935577 -0.029306 
tho -0.534444 -0.368260 -0.427156 0.311666 0.336611 -1.569688 1.887406 -1.747398 0.848869 1.574424 
i'll -2.265032 -3.859134 -2.407342 0.148935 -0.665135 -1.544080 4.207125 1.328626 3.860537 1.648270 
iPhone -0.031681 -1.959698 1.188715 2.003626 -2.791021 0.692545 -2.398108 0.745548 2.053150 8.070348 
) -1.503551 -1.140389 -3.403737 -3.396186 0.449950 1.470622 -0.101829 2.043754 -0.690211 3.146106 
mine -2.727372 0.146259 1.045732 -0.069576 0.090945 -0.832263 0.011336 -0.321089 0.629275 0.802220 
site -0.807971 -0.937089 2.492714 -1.047481 2.551962 1.364799 -1.694866 1.860021 3.875397 4.334735 
SO -2.011778 -1.456653 1.493863 -0.667563 -4.194282 -1.879860 0.949607 -0.571896 -3.880625 -2.577535 
coffee 3.303059 2.725904 2.151099 2.480070 0.442191 1.713947 4.300476 -3.491325 -0.347321 0.406215 
lots 1.976748 2.367075 3.878227 0.647448 1.097194 -0.497586 2.427155 -1.112971 1.072695 0.254978 
talk -1.193393 -1.892050 -1.253406 1.455126 0.331146 1.289941 4.006340 -0.231351 0.861558 1.382698 
ok -2.219493 -0.910805 -1.381791 -0.219065 2.027992 -1.680699 3.166552 -0.356250 0.949475 2.229824 
6 0.938480 1.476340 -0.432781 -1.611070 -5.092550 -4.573371 0.620647 0.534678 0.706129 2.386392 
part 0.194586 -0.575422 1.606953 -0.760453 0.580361 -0.218966 -1.859464 -2.622082 0.329227 0.741914 
me, -3.178636 -0.455131 0.705997 0.859023 -0.916135 0.654090 2.105008 1.983988 -0.690953 1.233929 
sweet -1.711524 1.920219 1.059619 -1.821106 2.428416 1.139486 2.792607 -1.149746 -1.038738 -3.203088 
damn -1.345538 -1.066662 -2.223819 -0.050519 -1.086368 -2.185099 0.801929 -3.521163 -1.012894 1.362550 
family -0.967638 3.396827 1.422541 -0.861064 -1.277592 -0.602159 1.622909 0.134321 2.072603 -1.458481 
busy 0.959414 -0.405285 1.444616 -2.824725 2.605093 -4.724307 3.253013 0.674009 3.240442 0.935150 
day! 2.979935 0.136901 2.155684 -2.399322 1.599970 0.055488 3.373227 -0.955788 1.626966 -3.277977 
everything -1.131151 0.000655 0.412702 0.652225 1.258486 -0.521221 2.374903 -0.845553 -0.661932 1.686325 
half 0.860540 1.604278 1.809395 1.126110 -3.527768 -3.002725 -0.437065 -3.226975 1.847175 1.067049 
@jonasbrothers -2.967000 -10.728845 -0.142550 0.137008 -3.028766 5.005970 0.842218 -2.625775 2.598635 -6.108770 
picture -3.637213 -0.540327 1.013789 -0.889405 2.628462 1.769906 -1.211212 -2.349199 0.968109 -1.127790 
they're -2.900846 -1.044176 3.679743 2.546266 -0.863896 -0.672772 -0.555214 -2.048583 -0.595194 0.338384 
Watching 0.964855 -0.779829 0.596018 -4.271762 -3.009086 -0.955751 -4.009290 -3.104393 0.275064 -2.701548 
Will 0.975197 -1.172535 2.709899 -0.914152 -0.552352 -1.225480 1.436329 3.560562 3.109033 2.425027 
birthday -2.151016 3.271616 1.883475 -1.561131 -2.426290 -0.474263 3.042309 1.845124 3.162057 -4.176878 
heard -3.343385 -2.655931 0.383184 -2.413273 1.851166 -2.096137 -3.226240 -0.627242 1.147386 2.513541 
remember -2.188715 -1.997761 0.624460 1.208967 -0.903579 0.267864 -0.050739 -1.201644 -0.099361 1.037865 
kind -0.466584 0.266955 3.415942 0.370510 2.502775 1.129225 0.430583 -1.335219 -1.975153 0.603149 
Sunday 4.206169 1.543686 2.233539 -3.613173 -0.209549 -1.324120 2.215883 0.895979 1.603235 -1.198017 
hit -1.602546 1.291599 -2.478168 -0.722874 -1.015961 -0.954972 -0.139972 -1.649632 1.757028 2.653904 
wrong -2.617861 0.845107 0.231272 1.074740 1.508185 0.094552 0.147192 -1.454332 -0.065778 3.585346 
Hi -0.893112 0.488690 2.607275 -3.680861 3.926019 0.158866 1.817262 4.333812 1.032536 1.057155 
guy -4.023297 1.910318 1.539977 0.518332 -0.739418 -0.018431 -1.132834 -1.781682 0.061588 -0.516902 
following -2.833849 0.497525 1.940141 -0.378498 2.360294 1.024952 2.736037 3.904350 -0.975422 2.891115 
win -2.574526 -4.827499 0.544068 -0.204809 -4.646366 0.136303 -2.141892 0.782962 2.516654 -0.242124 
send -1.488200 -1.292033 0.868023 2.581927 2.851026 5.660368 3.389967 0.921937 4.768088 2.215400 
able -0.779697 -4.129899 0.654618 1.282592 -0.865882 -2.080647 1.793396 0.956710 2.786852 3.473433 
reading 0.146212 -1.382089 2.206947 -0.742293 1.737188 0.002813 -0.555008 -0.471954 3.094190 1.163906 
couldn't -3.675835 -1.421359 0.371900 0.226883 -1.500450 -3.286912 0.935733 0.864837 1.954630 1.506271 
kinda -1.738131 -1.536256 -0.317145 -0.258044 0.240021 -2.275401 1.525684 -2.748557 -1.496242 -0.333490 
:-/ 0.185000 -1.470852 -2.219408 0.537815 -1.084531 -2.174708 4.189292 -1.939869 -0.561953 1.326524 
outside 2.750215 1.004974 -0.082730 0.108479 1.293500 -0.975454 1.919968 -5.950776 1.926934 0.029929 
Why -0.943283 -2.110790 0.554790 1.752439 -1.466772 1.643368 0.459935 -0.370378 -2.947279 2.829211 
-.- -0.586361 -2.915817 -5.242600 -0.810506 -1.235822 -2.084039 3.140056 -2.842825 -0.413593 2.434501 
One 1.021181 0.556678 2.547983 -1.996656 -0.999392 0.081334 -2.627567 -1.011455 -1.333271 0.396517 
today, 1.681807 1.004931 1.084599 -0.887142 -0.305574 -2.733582 1.394610 -2.192111 1.540047 0.173404 
anyone -3.901575 -0.658257 2.316764 3.882509 -3.288898 1.016092 1.900828 2.697018 -0.804185 3.554074 
eating 0.317752 3.364745 1.477902 3.009526 -3.226983 0.443091 3.675660 -4.728057 -0.015556 -2.719297 
mom -5.177060 3.312184 -0.135667 1.059672 -2.331232 -0.756398 3.138022 -0.423056 2.061428 -2.296833 
favorite -0.426396 1.556796 2.753365 -1.614973 -0.153645 2.662459 -3.081805 -2.378048 0.202626 -2.005443 
book -0.851550 -2.430371 3.336852 1.101255 0.114611 1.536324 -2.019198 -1.647859 3.546122 0.266213 
trip 2.198057 -0.060255 1.689264 -1.809755 -0.613602 -1.611341 1.123591 0.034743 5.066319 -0.297150 
idea -0.656992 -1.251130 2.916246 1.629474 0.831404 0.027393 0.504760 -1.537819 -0.711281 1.345129 
class 1.795501 -0.163514 -1.416712 -1.101761 -1.916988 -1.691787 2.321829 -1.641122 1.869625 0.142499 
online 1.479777 -1.232525 1.894583 2.102929 -0.983472 2.476182 1.225621 0.706524 4.015291 3.103884 
money -0.412064 0.905019 2.840264 4.569820 -3.791090 0.942844 2.900226 0.121212 0.816619 2.162197 
THE -1.301743 -1.815213 -2.406577 -1.490043 -6.817427 2.078106 0.815455 -0.663792 -3.835601 -1.610641 
To 3.541738 -0.773044 2.536236 -2.701341 -2.567974 3.905801 0.419398 3.169791 -2.669631 -0.188292 
Well -0.360999 -1.191292 1.179615 -1.185800 -0.307193 -2.701824 2.058433 1.024956 -0.986972 0.608396 
Morning 5.743435 0.782807 1.446643 -4.082049 2.880138 0.084845 5.922547 1.885425 -1.488897 -0.160890 
!! -0.274030 -1.370545 -3.394165 -3.404422 -0.855141 0.937875 1.890713 0.337490 -0.438291 -0.923314 
tried -3.358620 -1.206511 1.226315 2.929664 0.054561 0.617984 -1.390009 -2.187761 2.423028 3.716795 
-_- -0.997232 -0.830679 -4.411312 -0.130600 -1.591306 -2.224750 4.027336 -3.179075 -0.242126 0.852240 
you, -3.331446 -1.893223 2.573745 -0.020289 0.148245 -0.231038 2.404620 2.680263 0.012789 -0.758365 
time. 0.753595 -0.116202 2.865105 0.351662 -1.751313 -2.262500 0.467226 -1.074083 0.870280 0.146118 
1st -1.970936 1.694341 0.286527 -2.302368 -2.233246 -1.914562 -1.494226 0.644396 3.063123 0.206162 
tweets -2.443916 0.277518 2.805443 0.397392 0.339226 -0.583522 1.387041 3.310014 0.618999 2.781150 
set 0.904007 -0.591217 0.002396 0.052339 -0.296478 0.280249 -1.205274 -1.565334 3.199394 3.681884 
list 0.714208 0.929072 3.213803 -0.069020 2.603818 1.251382 0.401624 1.750239 2.291867 4.212929 
well, -1.497849 -2.424734 0.951705 0.050679 0.400022 -3.514951 2.620538 -0.093961 -0.898096 1.448503 
gets -0.828306 0.579885 -0.554248 0.173693 1.059503 -0.265845 1.890131 -1.538258 0.135342 1.462723 
room -0.654793 2.467531 -1.532952 1.209745 -0.320760 -0.066798 1.209803 -4.829435 2.719771 0.997875 
office 2.486183 1.899618 0.685579 0.256584 0.802807 -0.814920 1.692943 -2.767075 2.647768 2.384464 
You're -0.456934 -1.627072 4.390242 -1.006674 3.629993 1.777246 2.649744 0.903859 -3.105935 -1.531500 
goes 1.033031 0.672630 -0.291058 -1.658241 1.396587 -0.767220 0.682000 -0.434951 -0.310124 2.904464 
news 0.162297 0.787729 3.678185 -2.160609 0.636077 -2.081305 -1.814728 0.927269 -0.644932 1.955725 
Off 3.753689 1.330981 -0.311560 -2.037201 -1.517653 0.088185 3.661044 0.099184 3.695070 -0.988795 
write 0.049772 -5.286230 -0.725313 2.173059 2.507162 3.389024 1.010782 -2.324442 2.549838 4.126177 
YOU -2.722464 -2.934783 1.139539 -0.408849 -4.834924 2.481924 3.193081 2.632643 -5.268114 -2.396216 
Your 0.478260 -0.855741 2.971484 -2.732427 2.456792 3.935048 -1.043525 1.184622 -2.127556 -0.507088 
Wish 0.261060 -2.318927 3.804831 0.318895 -0.952599 -1.151061 2.103271 0.125622 2.305383 -2.348428 
tomorrow. 4.193472 -1.382033 0.097040 -1.275546 -1.873532 -2.487008 4.503405 0.525928 1.965545 0.637186 
watched -2.900842 -2.188569 1.064991 -3.404744 -0.991606 -2.297766 -4.700999 -3.728917 3.708525 -3.111989 
else -1.122660 -0.276193 0.090962 3.002733 1.030149 1.300494 4.606593 0.148058 -1.837357 4.261959 
started 0.832313 -1.170522 0.634059 -1.245101 0.820885 -2.514959 -0.713567 -2.022431 2.533089 2.238041 
needs -1.364149 1.962648 -1.301978 0.650363 0.856657 0.960082 1.139285 -1.058062 0.421250 3.798404 
woke -0.424169 2.547037 -2.601636 -0.172922 -0.756162 -4.214572 4.374354 -4.137544 3.014782 0.304239 
today! 2.181880 1.206999 0.983627 -1.439097 -0.176030 -0.381656 1.903826 -1.625720 1.505774 -1.518482 
June 1.794988 -2.263497 -0.173012 -3.542528 -5.829759 -1.142564 0.478283 4.816998 3.540910 1.075902 
: 0.604625 -0.337590 -0.849721 -3.483420 -0.478567 1.995861 -1.046863 1.971377 -0.723520 1.848411 
face -3.522870 1.317495 -1.528521 -0.065482 1.071122 0.795321 1.042194 -3.032035 -0.986732 -0.245546 
-&gt; 2.129478 0.768954 -2.831805 -3.405385 1.242240 1.866421 -1.180304 -0.728366 -0.656081 4.932567 
though. 0.690612 -2.014211 3.140230 0.184000 -0.715797 -1.853598 -0.154171 -1.873302 -0.469777 -0.179746 
For 1.968438 -0.606426 3.923792 -0.563559 -2.593228 3.175187 -0.536352 2.949106 -1.397304 0.988331 
Monday 3.891300 -0.095850 1.857770 -2.620498 0.349728 -2.158763 3.036673 1.383488 -0.166812 0.967613 
loved -3.198904 -2.781821 2.049174 -0.706410 -0.057071 0.925976 -2.011689 -2.201371 2.639749 -3.136210 
means 0.415432 -2.081684 0.087941 0.646376 -0.592805 -1.486155 1.029679 -1.464393 0.182977 2.488203 
Nice 0.663498 -1.524388 3.214804 -2.868772 3.613164 1.829539 -0.903569 -0.146820 1.941136 -1.216473 
email -3.598099 0.015267 2.151180 1.641965 0.313494 1.211569 1.306518 3.779667 5.614619 4.113394 
sooo -1.525114 -1.809811 -0.855102 -1.284626 -0.690108 -1.481111 2.789955 -2.630949 -1.914611 -3.250977 
called -2.663805 0.724798 1.151920 -0.406775 0.109360 -0.329386 -1.438886 -0.803895 0.314613 1.176558 
dog -3.640024 4.601059 -0.358191 -0.884960 -0.191818 -1.334685 0.874543 -3.673395 -0.363671 -2.053477 
rest 1.131752 0.529659 0.277311 -0.955741 0.925609 -1.195972 3.219429 -0.562460 1.498019 0.100879 
forgot -3.659813 0.391672 -0.549664 0.615034 -0.755789 -1.285878 0.435189 -1.168115 2.830902 0.978567 
now! 0.422739 -0.749188 -0.994661 -1.102567 -0.510359 -0.963849 2.216764 -0.580902 -0.680510 0.583777 
link -2.756277 -1.868192 2.538052 0.453755 2.773932 2.529182 -0.757875 1.613158 3.927860 3.440703 
seeing -0.543093 -2.221266 2.222313 -1.047096 0.022529 -1.722808 1.033267 -0.351461 2.506091 -1.966879 
Check 1.204199 -2.220610 0.120809 -2.647576 2.258425 6.984175 -2.361778 -0.130105 5.169171 0.913548 
told -5.680566 1.046670 0.208097 0.715884 0.033523 -0.633326 0.365503 -0.126213 1.711174 0.870860 
using -0.321032 0.777427 2.586355 1.607453 1.231832 0.879742 -1.606970 -0.304116 0.695824 6.719064 
now, 0.563894 -0.438924 -0.529478 0.108562 -0.139941 -0.783893 1.756749 -1.359699 1.082758 1.599061 
work. 1.901969 0.545363 1.837505 1.468813 -1.977202 -0.536069 2.496772 -0.481470 2.259590 1.185593 
e-mail -2.765970 -1.951094 1.296518 1.521884 0.658909 2.053928 1.217555 2.820277 4.417556 4.082369 
Time 3.877151 1.464547 -0.741879 -1.950123 -1.226048 0.923099 2.092605 0.892361 1.334522 2.212213 
night. 0.971821 0.202370 1.472094 -1.804793 -2.266098 -3.256484 1.153085 -1.278628 1.549466 -2.376513 
again. 0.320143 0.036355 -0.373770 -0.544383 -0.864420 -1.147973 1.174718 -0.980521 1.166507 1.074718 
course 1.861771 -1.324071 2.604716 0.906572 -1.008089 2.174009 0.054846 -0.915636 -1.396390 0.659606 
talking -2.473993 0.225796 1.212401 -0.424764 0.737051 -0.209132 0.958412 1.211383 -0.266407 1.203659 
(via -0.202719 -1.280519 2.286419 -1.744861 -0.186831 1.994062 -1.473493 2.426159 -2.531653 1.980859 
xx -0.912278 -2.353896 -2.161728 -2.427801 1.459204 0.291966 4.028880 0.287302 1.092123 -1.744212 
stuck 1.718667 0.459654 -2.225024 -1.569647 1.157019 -0.128458 0.209459 -3.728796 0.172428 2.218849 
bring 0.913060 -0.356524 0.754227 2.979366 -1.371139 3.300010 3.683256 -1.743136 2.468107 -0.538919 
crazy -0.801981 0.112553 -0.469337 -1.199345 -0.218147 -1.502280 2.135504 0.104114 -0.335617 0.439766 
She -5.156471 3.517418 2.407618 0.238681 -1.027875 -0.027055 0.487092 -0.148506 -0.086483 -2.246913 
Maybe 1.115552 -2.850069 2.222176 1.167805 -1.727950 -0.498446 1.893093 0.703540 0.588157 1.146730 
comes -0.021624 -2.002146 -1.454070 -0.358706 -0.602450 0.277960 -0.146828 -1.457435 1.988503 2.057400 
worth 0.845665 -2.756659 2.224471 0.711753 -0.323710 -1.520418 -0.227659 -1.503774 -0.659963 2.324663 
wants -3.255452 1.497283 -1.913978 1.274708 -1.620316 1.340918 2.390424 0.720388 0.996102 2.290034 
couple -1.318755 1.420858 3.978835 -0.083587 -2.368394 -4.447210 -0.046282 1.130731 1.296067 1.129814 
minutes 1.415859 -2.312617 -0.676665 2.995010 -7.011235 -2.883180 -1.263295 -5.130375 2.501686 3.577784 
good. 1.258841 -0.859765 2.701906 -0.699041 0.191399 -1.930574 0.354662 -2.995412 -2.097046 -1.004665 
Friday 2.245851 -0.922016 2.011162 -2.691140 -0.943560 -1.796279 2.272478 3.076253 1.719238 -0.025009 
top -0.007261 -0.138986 -0.220705 -0.239611 -1.429876 1.047194 -3.000056 -3.088451 0.728505 2.055178 
you? -0.701176 -1.881032 2.905655 -0.172284 1.913942 -0.732649 3.412134 1.713465 -2.330091 0.751252 
definitely -0.754142 -2.201970 3.261535 -0.250808 -0.024447 -0.379292 -0.529358 -0.005780 0.302358 -0.103393 
i've -4.040571 -0.075080 1.104792 -0.478847 -0.002600 -5.317933 0.131747 -0.567956 1.129702 1.945026 
running 1.182401 3.131282 0.732143 -0.284549 0.783687 -2.083049 0.786437 -0.902350 2.397786 4.704180 
once -2.259805 0.242027 0.624438 1.104595 -0.776035 -1.454614 0.659006 -0.354709 2.488907 2.226339 
catch 1.499200 -1.546479 0.961388 0.968592 1.133861 0.487343 4.797581 0.232340 4.923938 0.559893 
mind -1.299667 -0.179582 0.475196 1.444019 1.118666 1.061923 1.439213 -1.534704 -1.407526 2.104648 
shopping 1.254086 1.973364 1.635904 1.467160 -1.863651 0.694618 3.138459 -2.257241 5.451568 -1.818660 
instead -0.057993 0.782036 0.131467 1.496380 -1.843790 0.411667 0.471577 -2.165876 1.524354 1.520183 
sunny 5.913392 -0.853037 1.517627 -3.096151 4.478179 -1.234403 3.344189 -4.170864 0.910468 -0.790742 
Very 0.433787 0.398803 5.403311 -1.088368 0.875832 -1.162043 -1.958277 -1.838913 -1.900295 -0.817941 
open 0.380545 0.586991 -0.651500 1.011286 -0.706987 0.585225 0.482449 -1.593968 2.355217 3.329304 
ago -4.800956 3.560623 2.997304 -0.454268 -4.130876 -6.324538 -2.781696 0.675651 1.311195 3.177732 
drive 1.676982 0.952444 0.700901 2.321948 -2.546213 -0.552545 1.914702 -2.438611 2.670899 2.040263 
7 0.828854 0.247470 -0.056365 -1.444142 -4.636995 -4.255966 -0.244520 1.059232 -0.384110 3.631715 
change -0.141902 -0.971419 -0.018274 1.513158 1.955560 2.387609 0.334151 -2.514413 0.344304 3.383581 
Too 1.542411 -0.973522 2.921955 0.259781 -3.049735 -2.595296 1.200162 -1.266651 -2.301089 -0.817460 
Please -2.688532 -0.790368 -0.031015 -1.615663 -1.056675 3.219607 1.584831 6.121506 0.556058 2.162835 
girls -1.211185 0.115309 0.725484 -0.329637 -1.531198 1.061053 2.007063 -1.103961 1.353677 -3.649934 
8 0.729356 1.432433 0.766629 -0.670877 -5.901501 -3.797502 -0.012367 0.565994 -0.198088 2.166607 
won -3.442252 -2.485313 -1.727036 -3.916762 -3.738843 -2.344098 -4.027501 -0.719726 2.751530 -0.646957 
super 0.167476 -0.091488 0.800434 -1.160542 -0.142671 -1.332472 1.373610 -2.406447 -0.121606 -2.090957 
out. -1.067702 0.056965 0.420013 0.706262 -1.602739 -1.234194 1.539312 -0.161061 2.645741 0.919959 
break 1.630263 -0.886832 -1.030842 0.055809 -0.912072 -0.617916 1.678602 -2.188722 2.537974 1.283915 
sucks -0.566251 -1.587112 -1.344880 -0.622376 0.679780 -2.408083 1.628527 -2.521346 -1.073737 1.656386 
welcome 0.125804 0.000132 2.651374 -2.737596 4.998379 1.783799 3.042698 3.069046 0.246963 0.748706 
didnt -5.533993 -2.023475 -2.661021 0.788040 -2.169877 -2.483855 2.599976 -0.245446 3.050853 0.578081 
meeting 2.284647 0.439633 3.101670 -0.491845 -0.201616 -0.367177 2.695513 0.968325 4.049892 -0.529165 
stupid -1.323887 -1.401399 -3.784767 -0.102904 0.671297 -1.510188 1.052015 -3.253351 -0.014609 4.044360 
either -1.251067 -1.495462 0.077337 2.062522 0.132231 -0.833037 1.625995 -1.808456 -0.282272 3.361632 
works 0.084750 -0.467442 1.223819 0.489314 2.525765 0.218763 0.292891 -0.661854 0.239392 4.825815 
exam 4.214410 -5.196524 -3.114653 -2.648844 -1.236261 -3.576887 1.956653 -3.380436 0.616164 1.804302 
up. -1.695131 1.625336 0.291734 -0.153007 -1.131912 -3.295560 2.362649 -0.464655 1.500347 0.331237 
Do 0.096072 -2.761329 0.978485 0.171001 0.052367 4.229260 0.829860 1.506371 -2.053228 1.696278 
feels 0.584014 1.052724 -0.820341 -0.474107 2.072348 -2.026079 1.713446 -3.942634 -1.011953 2.076060 
sent -3.952354 -0.214669 1.407819 0.324700 1.700284 1.699461 -1.020566 1.260674 4.035175 2.823206 
sound -0.892373 -1.522351 0.742312 1.431319 1.837846 1.004851 0.165852 -4.211192 -2.128643 1.441013 
til 1.814085 -3.643784 -2.157274 -1.319656 -4.156589 -4.295358 3.610909 0.162829 2.681942 0.897055 
cause -2.478604 -1.324632 -2.274552 0.292150 -0.876677 -2.002412 1.874773 -2.410486 0.154253 0.889452 
lol. -1.849804 -2.833708 -1.139537 -0.716911 -0.712437 -2.171008 1.015597 -1.166505 -1.128254 0.611436 
Getting 3.734899 1.402676 -0.919528 -1.894161 -1.719679 1.331774 2.423354 -1.002732 4.287741 -0.724563 
pics -2.587796 -0.549975 1.169646 -0.986614 2.175932 1.373437 0.300748 0.976966 5.292693 0.085877 
starting 1.194246 0.436482 0.279050 -1.377046 0.171639 -2.237022 1.643446 -0.101759 1.573845 1.735312 
under 0.132594 2.261325 -0.094429 0.356359 0.885449 -0.166859 -0.332819 -3.550569 -0.791121 3.217979 
leaving 0.632467 0.409567 -1.351604 -1.623225 -1.037284 -0.757286 2.337731 -0.055234 2.280962 0.013061 
sitting 0.852770 2.346737 -0.812925 0.070907 0.183614 -0.437903 1.314666 -5.292885 1.455304 -0.328160 
you'll -0.947729 -3.298165 1.783792 -0.192323 1.886902 -1.044989 1.967715 1.689897 1.141425 2.297006 
Last 2.264774 -0.548080 1.929978 -3.805735 -1.334068 -2.952337 -0.625358 0.501370 3.089838 -0.613616 
bored -0.848184 -1.340941 -4.751678 -0.924487 -0.566537 -1.177160 3.949933 -2.312668 0.844265 0.883169 
less 1.904982 0.133846 2.874352 0.810447 -1.192944 -2.839921 0.594086 -1.145746 -3.211377 3.811512 
heart -3.680653 3.319044 -1.351637 -1.178778 0.867268 0.501067 -0.200252 -1.885313 -0.679846 0.484164 
red -1.283138 2.204776 -1.027449 0.381469 0.426553 1.311249 -1.099579 -7.311428 0.035343 -0.925317 
Can 0.167484 -2.668112 -0.117197 0.034934 -0.206784 3.725572 2.172683 3.339517 -1.343512 3.320804 
ask -3.400367 -1.099249 1.434582 3.004189 -0.111562 3.175938 2.408568 0.534303 0.378261 0.899410 
tonight. 1.215925 0.358972 1.556077 -0.053652 -2.944359 -2.058820 2.048720 -0.896767 1.588868 -1.285591 
breakfast 2.225394 4.677963 1.980539 1.248258 -1.903260 0.458896 4.907255 -2.226182 0.370868 -2.152714 
 2.526957 -0.004905 -0.022980 -6.284588 1.234129 3.525333 -0.628006 1.701872 -2.634820 -0.612306 
t-shirt -1.696869 -1.290021 0.921261 1.656274 -0.906448 3.926185 -2.450065 -5.256503 1.511416 -1.355144 
@ddlovato -4.498684 -7.247909 -0.241947 -1.072819 0.349320 1.957894 0.502018 -1.577044 -0.576875 -3.345546 
God -1.868618 3.492560 1.087702 -2.257015 0.341976 0.625263 3.000391 2.301253 -3.484131 -1.225239 
that. -2.336096 -2.442105 3.113427 1.268074 0.419030 -1.554230 0.525940 -0.166728 -0.718688 1.552300 
ones -2.082644 0.149616 3.863795 3.265304 -0.681647 1.531667 -0.086385 -1.955775 -0.657242 0.604641 
MY -1.685662 -0.054757 -2.859938 -2.002504 -5.561458 0.209776 0.773834 -0.940101 -4.399898 -0.225503 
here. 1.256881 -0.527297 1.915609 -0.454311 -0.152917 -0.769937 1.213871 -0.624797 -1.205252 0.366170 
Today 2.201002 1.431756 2.612409 -2.706261 -1.217914 -2.543952 0.850244 0.096186 0.565923 -1.498317 
soo -2.016233 -2.369949 -2.157451 -1.501319 -0.122297 -1.877744 3.316425 -3.750808 -1.478765 -3.278405 
perfect 1.250607 0.510303 1.584325 -1.754408 3.294517 0.716432 0.172651 -3.029492 -0.097441 -0.623713 
beach 2.613987 0.340915 0.395886 -0.856720 -0.345962 -0.601128 2.273850 -3.651903 2.515647 -2.209005 
there. -0.579120 -1.703521 4.362902 0.646379 -0.397195 -0.834795 1.365898 0.415392 0.608560 -1.314542 
what's -1.467834 0.051025 0.038930 0.140969 1.321448 0.704694 2.693994 0.902203 -2.171651 2.361664 
seem 0.359207 -1.036324 1.602417 2.889531 0.299522 -0.188277 1.625326 -2.136761 -1.558823 4.094731 
ill -2.554888 -0.939859 -3.092574 -0.111031 -0.016384 -2.765870 5.176080 -0.271284 1.607887 1.215255 
add -1.839794 -1.652366 0.864974 1.568888 1.608178 4.620438 0.382370 0.870671 2.247715 3.383523 
NOT -0.875033 -1.212348 -0.835132 0.480417 -3.856715 0.384822 0.649034 0.085207 -2.346942 1.623644 
fan -2.557444 -1.039948 -0.159133 -2.512402 0.719210 0.557779 -2.521124 -0.508028 -0.557521 0.565429 
walk 1.833156 1.878968 -0.216065 1.089230 -0.614639 -0.727100 2.233229 -4.995203 1.839462 0.088318 
--&gt; 0.004350 -1.451062 -1.042322 -2.416732 0.152929 2.550064 -0.903145 1.827533 0.111063 2.932673 
enjoying 2.812510 0.861443 2.044556 -2.425598 4.032667 0.187391 1.997984 -2.346582 2.337568 -1.368335 
@tommcfly -3.119008 -6.182809 0.038960 -3.031659 1.660558 3.414996 -0.230947 1.122110 -1.294282 -2.045567 
water 1.833842 3.226635 -0.158359 2.251962 -0.664981 1.348341 1.518839 -6.106269 -1.353863 1.593754 
finish 3.249183 -2.070739 -0.735561 1.030270 -1.916626 -0.322665 1.936270 -3.152179 3.477133 1.513441 
Oh, -1.189849 -2.505719 3.443512 0.311178 0.256436 0.094000 -0.200877 -0.061329 -1.894394 0.170585 
gave -4.298980 3.241830 0.164483 1.069049 -0.209312 0.249058 -0.556156 -2.279774 2.199473 0.987481 
second -0.290774 -0.534003 0.503939 -0.979584 -1.146764 -0.861394 -2.543912 -2.172628 2.105384 1.445405 
we'll -0.668252 -2.188761 1.395540 0.077641 -0.605298 -1.445861 3.410685 3.172171 2.109585 1.749888 
care -1.726476 1.003770 0.665312 1.431940 -0.227045 0.713608 4.141827 0.876328 -0.769034 0.673054 
month -0.686419 -0.124098 0.668579 -0.013915 -3.973476 -3.883276 -0.092377 -0.254068 2.020259 1.854962 
listen 0.520735 -3.470565 -0.926142 0.120633 0.623062 4.475394 -0.073560 -2.033719 2.019368 0.265838 
due 2.320723 0.359506 0.266454 -0.445597 -0.485207 -2.854940 -0.748257 -2.394948 2.320580 4.622522 
high 0.345820 1.015584 -1.466370 -1.134151 -0.792812 -2.084889 -1.137074 -3.733600 0.470160 2.282981 
photo -2.402260 0.415462 1.432762 -1.175786 2.021198 2.345028 -1.891985 -0.889376 2.880369 -0.101286 
AND -0.263391 -0.387530 -2.064998 -0.943380 -4.077717 0.646032 0.290568 -1.539276 -2.477704 0.026442 
visit 0.635135 0.464592 0.798410 -0.061914 -1.814357 1.499767 3.283202 1.645379 3.426416 -0.981368 
fine 0.155077 -0.041274 1.182618 -0.427437 2.988603 -0.509552 2.144680 0.062330 0.392568 2.541515 
yeah, -2.021868 -2.297464 1.956113 0.356765 0.591256 -2.859280 1.042864 -1.257983 -0.944273 0.698955 
There 1.154606 0.232339 3.123305 -0.052974 -0.572062 -0.276211 -0.462916 -0.046314 -1.766371 1.950794 
Go 2.258886 -2.433357 0.185641 -2.688714 -2.295443 1.659884 -0.843010 1.144569 0.860230 0.099551 
fun! 1.007611 -1.687135 2.922184 -0.319922 -0.196236 -0.599640 3.554903 -0.097297 1.545114 -3.100200 
months -0.724111 -0.220634 1.294737 1.142654 -5.312389 -5.475565 -0.947402 -2.468058 1.533035 2.081577 
b -0.491442 -0.966616 -3.547606 1.526014 -2.451882 0.639728 6.113804 -0.507864 0.324129 0.580619 
hoping 0.074619 -1.974139 0.942589 -1.076447 0.974043 -1.701170 0.435071 -0.150121 2.841460 1.445271 
during 0.218137 -0.565972 1.116446 -0.894024 -1.589858 -2.208016 -0.638713 -0.401672 3.124022 1.188631 
dad -4.562123 3.298415 0.480318 0.622381 -2.188883 -1.036014 2.173018 0.124730 2.673966 -1.610016 
Looking 4.112192 -1.520561 8.626900 -0.377264 -1.232376 -0.314124 -0.212556 2.205058 4.656389 -0.583754 
computer -1.809954 1.400349 -1.751754 0.885577 0.665516 -0.657523 0.602227 -1.964619 2.707830 4.708710 
move 0.405281 -1.009747 0.185141 2.399530 -1.895001 0.014760 2.576035 -1.359729 0.900855 1.918871 
yes, -1.009388 -1.186323 3.152725 0.852937 0.197205 -0.668300 0.861011 -0.527490 -0.764431 0.083294 
/ 2.778993 0.740472 -0.091716 -0.064045 -1.022626 4.856231 -0.646077 -0.808217 0.950398 2.737786 
Listening 3.521063 -2.210454 -1.055004 -3.903878 0.341754 5.681685 -1.971257 -1.842375 0.567673 -0.809476 
turn -0.057998 -0.430417 -1.551699 1.705769 0.293636 1.063367 1.575457 -3.492282 2.439806 2.221333 
lucky -2.786597 0.134787 1.037420 -0.819835 0.535310 -0.601763 1.831965 0.116910 0.052113 -1.583251 
wonderful 0.167596 2.219956 4.097895 -2.338001 3.067622 -0.442916 2.539122 0.268608 1.388221 -2.912431 
Saturday 3.435241 -0.333685 1.785248 -2.601503 -1.608266 -3.092383 2.608269 0.673526 1.072412 -0.966397 
small -0.182220 2.361871 3.102413 1.833377 1.164505 0.643017 -0.625583 -3.853852 -0.050947 1.518307 
followers -1.185681 -0.217671 0.520937 -0.797661 -0.105260 0.258331 1.793961 3.770575 -1.263954 3.698973 
Well, 0.124126 -0.828768 3.856452 0.428429 0.337514 -1.602716 1.268163 0.855218 -1.194900 1.564178 
problem -1.054131 -0.228228 3.701246 2.445958 1.292672 -0.984311 0.565698 -0.774078 -0.805909 4.285683 
Did -1.171856 -1.399431 2.722304 -0.317851 -0.855050 -0.040681 0.286179 1.895803 -0.109624 0.267910 
hopefully 1.706243 -1.062929 -0.683144 0.288823 0.414084 -1.471329 4.054483 -0.293567 3.524880 2.594114 
one. -0.754302 -1.294064 2.466059 0.801847 -1.339400 -0.115991 -0.010174 -0.580843 -0.712455 0.090427 
cut -1.577886 0.549402 -0.278183 1.689347 2.140623 0.651584 0.351044 -5.629839 2.559949 1.123304 
morning. 3.783850 1.050604 1.290515 -2.063700 -0.236716 -2.782797 2.537985 -1.606052 0.429538 -0.443679 
When -1.198003 -1.295606 0.661415 0.051399 -1.293541 0.758021 0.926648 1.912093 0.379927 1.501758 
cuz -4.416651 -0.075294 -3.887041 1.196480 -1.774619 -0.942839 3.164347 -2.014224 1.560623 0.839821 
Was 0.838385 -0.609020 3.740091 -0.507841 -1.594271 -2.034377 0.132247 -0.252107 0.742390 -0.908862 
true -2.079508 -0.815746 1.488141 -0.780123 0.898225 -0.623591 -0.294567 -0.209397 -1.742564 0.985645 
via -1.194376 1.401618 1.158836 -0.652733 -0.471684 2.379183 -0.695083 4.029046 1.818034 5.389927 
store 0.185331 0.991710 2.950930 3.179850 -2.791578 2.747148 -0.373406 -1.178772 3.817103 1.715668 
close -0.552542 -0.664802 0.238785 0.565015 -0.911005 -0.497023 0.119497 -1.991461 0.044012 1.228552 
Then 1.627823 0.540836 -0.566511 -0.713615 -3.445543 -0.615899 1.524174 -1.211220 3.605280 -0.870392 
album -0.334289 -5.808187 -1.857723 -2.268074 -1.408399 3.656660 -2.647950 -0.890303 2.794971 -0.354678 
--- -0.543713 -1.191987 -1.175381 -3.362215 0.304952 -0.352912 0.118294 1.244295 -0.553097 0.962038 
team -2.196662 0.748995 -0.339646 -2.901251 -3.279476 -0.714007 -2.209099 1.211134 3.434266 -0.309644 
Glad -1.050591 -1.457087 4.690381 -1.685238 2.589784 -2.234987 1.932766 2.056912 0.966226 -0.984069 
ride 2.496792 2.301440 -0.999521 -0.325833 -1.310740 0.936400 1.064884 -3.629078 2.315876 0.247470 
short 0.093385 1.105904 0.831344 -0.776907 0.841206 -1.583668 -0.210229 -1.752002 0.601533 2.174506 
Yeah -0.797169 -2.273033 2.392874 0.045387 0.817046 -1.569925 -0.093068 -1.031730 -0.469214 1.140225 
interesting 0.653776 -1.231772 3.654571 -0.441299 1.881154 0.645379 -0.259804 0.841453 -0.878369 2.341773 
wake 1.857789 -0.507931 -2.627957 1.391198 -0.500259 -1.427328 7.623703 -2.519492 2.322998 0.668545 
well. -0.338713 -0.495692 2.375699 -0.585051 0.319284 -3.443136 1.554844 0.296975 -0.918250 1.399142 
ppl -3.801073 0.401559 -0.151481 1.877134 -2.274575 0.231013 2.644087 2.314846 -1.564523 2.868014 
Looks 1.611975 -1.488639 2.784515 -0.391485 0.690980 0.352238 -0.304192 -2.558519 -0.112032 -0.887165 
looked -2.871724 -1.717238 2.206472 0.196321 1.953257 -0.223596 -1.740654 -3.826019 2.773988 -1.270764 
final 1.177597 -1.666342 -1.177458 -2.473942 -3.283265 -1.204177 -2.482074 -1.619073 2.936629 0.908435 
boy -2.892188 3.182803 -0.982720 -2.297411 -0.175822 -0.378583 0.876994 -1.245333 0.739931 -2.116779 
writing 2.160339 -2.476819 1.342053 -0.767279 2.306070 -0.191071 -0.974292 -1.927103 1.955225 3.212622 
Yeah, -2.111174 -0.818071 4.082315 1.111566 0.436282 -1.219091 -0.849562 -0.839911 -0.328733 1.055357 
OMG -3.162968 -1.829473 -0.154771 -1.859716 -2.691583 -0.016611 0.121136 0.000054 -1.634655 -2.823624 
heading 3.371785 1.858470 0.303008 -1.310068 -0.474087 -0.531460 4.139580 0.208185 5.266779 0.135812 
evening 3.199987 0.327378 2.212620 -1.750557 1.471500 -1.245148 1.939238 -2.051693 2.813987 -1.301962 
black -1.228270 1.593260 0.459810 1.322089 0.632035 3.471552 -2.544366 -7.626867 -2.411760 -0.136401 
update -1.113144 -2.304724 -0.668433 -0.349882 0.729769 1.244405 -1.019480 1.551530 2.889875 5.817348 
Another 4.282825 1.387687 1.656130 -4.212711 1.666337 -1.850371 -0.346056 -1.201185 1.392764 0.953008 
side 0.041010 3.218829 -0.240108 0.511748 1.363343 1.271746 1.236657 -2.988069 1.430382 1.670225 
eyes -1.180147 1.943781 -1.191471 -1.020352 2.228783 -0.151849 0.394380 -5.078948 -3.493513 0.610788 
hi -3.650891 0.062895 -1.407572 -3.112982 1.761311 0.157479 3.190574 3.922346 2.096696 0.179989 
sister -4.494042 3.225459 -0.286236 -0.519292 -1.475342 0.005620 0.862690 -0.940976 1.973732 -2.170937 
wow -2.266685 -2.921117 -0.223530 -1.889775 1.165671 -2.025030 0.100392 -2.236122 0.643554 -1.239633 
Yes -0.601488 -1.561377 2.477532 -0.247122 0.083343 0.079671 -0.055836 0.965145 -0.982006 1.390810 
TO -3.068624 -2.760021 -3.331952 -1.691767 -8.051924 1.979146 0.915567 0.005554 -4.467076 -0.440690 
TV 0.165809 -0.638710 2.166762 -0.655899 -2.361527 0.813033 -3.626666 -1.481719 2.486490 0.539561 
ha -2.803014 -1.702544 -3.714257 -3.448048 4.698469 -1.853256 0.729164 -1.445937 -2.884165 5.175611 
it? -1.301740 -4.233637 1.352938 0.604477 0.710958 0.435449 -0.261397 -1.059925 -1.821457 1.858538 
concert -1.390165 -3.411335 0.004001 -2.006817 -2.939817 1.033579 -0.186117 0.629486 3.569717 -3.356714 
rather 0.683483 -1.450009 2.246200 1.404051 1.580576 0.001045 0.377468 -3.305483 -1.111465 1.673891 
May 2.176978 0.321573 1.444973 -3.958951 -2.283164 -1.076936 0.169343 3.955500 1.115222 1.230478 
saying -3.470920 -0.171906 0.124633 0.005168 1.426291 0.258173 1.025860 0.432577 -0.346204 1.830769 
aww -4.693857 -1.291955 -1.199222 -1.208933 2.338964 -0.954299 2.946289 -1.774632 -0.707984 -1.777151 
hell -0.107356 -0.903873 -2.031185 -0.521163 -0.122996 -1.204908 2.544537 -1.130676 -0.890155 1.826026 
songs -0.653888 -1.788030 -1.552884 -2.119860 -0.067494 3.032596 -1.373305 -0.939905 0.760708 -0.035510 
drink 1.643530 1.187395 1.408217 4.133648 -1.616415 2.612934 4.059105 -4.095913 -0.840651 -0.293037 
past -0.004466 1.402828 2.032304 -0.403521 -1.515711 -5.044588 0.235277 -1.216855 0.254847 2.330362 
smile -2.887514 1.158585 0.111116 -0.753704 4.157832 3.261666 2.172101 -0.998379 -1.164707 -0.335988 
person -2.687103 0.611823 2.026668 0.560896 0.364901 0.372306 1.158864 1.157057 -1.341883 1.211949 
clean 1.382354 2.720668 -1.214302 1.889112 1.004726 0.545792 3.384508 -4.591363 3.076601 2.256507 
page -1.610624 -0.336927 0.934667 -0.846253 1.440224 2.032481 -2.424862 1.330943 3.954668 4.880295 
afternoon 3.572611 0.308953 1.666868 -1.392829 0.342144 -1.283736 2.478418 -2.031830 2.835211 -1.154609 
ice -0.571449 2.115344 1.906154 4.690696 -6.146074 3.381690 4.513986 -3.027938 1.021603 -4.018786 
week. 2.695061 -0.904454 2.633088 -1.277173 -1.458711 -3.481943 1.080159 0.314168 2.120298 0.978366 
time! 1.413021 -0.476542 1.826799 -1.004151 -1.131607 -0.801295 1.518478 0.134918 1.748693 -0.941728 
easy 1.623079 -0.293991 4.099812 2.830332 0.569663 0.928563 1.601393 -0.942230 0.094625 2.920217 
loving 0.629605 -0.479267 0.112195 -2.935319 3.699022 1.002831 -0.722783 -1.981485 0.878616 0.474384 
hehe -1.921112 -1.426310 -1.223593 -1.006047 1.678912 0.466690 2.064783 -0.703529 -0.199621 0.118195 
cat -4.163200 4.873176 0.639467 0.629091 0.328581 -1.202183 0.869379 -2.863717 -0.768966 0.340162 
wouldn't -3.237983 -1.609455 1.611128 1.792143 -1.114930 -1.152318 0.815316 1.273880 0.074166 2.951915 
Yes, -0.349661 -2.267186 3.622509 0.295889 0.306470 -0.164101 -0.409760 0.558672 -0.826721 1.360125 
We're 1.347714 -0.662973 3.187082 -0.608152 -1.517267 0.360961 0.966614 1.449425 0.918882 -0.770895 
First 2.699670 1.022276 1.800753 -3.124402 -0.175698 -0.982032 -1.144530 0.286489 0.839728 1.382941 
day, 2.623902 -0.128828 2.046672 -1.336348 0.950004 -1.899566 2.147732 -1.784771 1.299104 -0.984414 
test 2.032051 -1.000938 -2.262285 -0.325708 -1.393410 -0.757937 0.378999 -2.208546 2.204035 3.822972 
hahaha -3.558596 -1.507383 -2.181839 -1.561892 0.658664 0.081832 0.765988 -1.231985 -0.736709 -0.412393 
Get 2.944547 0.071367 0.799660 -1.094658 -1.365885 4.500026 1.868874 1.982698 -0.557357 0.476636 
taken -2.589448 2.165622 0.526841 -0.564243 1.513967 -1.155402 -1.366918 -2.148813 2.780205 2.049267 
shit -2.743125 -0.775313 -2.893664 0.142766 -0.372793 -1.093419 1.165218 -2.359693 -0.602158 2.118594 
sleeping 0.885587 0.585410 -1.228692 -0.275558 -1.201691 -3.590179 3.711011 -2.086900 -0.058348 1.115449 
IS -0.889710 -2.231259 -2.726539 -1.637214 -3.957916 1.226986 0.366643 -2.032755 -6.606233 0.631183 
2nd -0.856882 1.400366 0.705815 -2.903261 -2.723274 -1.893980 -2.448292 0.024026 2.753966 -0.133840 
loves -3.586365 2.273924 -2.035470 -2.081072 1.069400 1.530528 1.240300 -0.926320 -1.612658 -0.868567 
:-P -0.686929 -1.717680 -0.569313 0.033633 0.199531 -0.498450 3.305951 0.030453 -1.398360 0.866589 
know, -1.482294 -4.076521 1.954233 1.077581 0.485266 -0.052933 0.951016 -0.000442 -0.672369 1.420059 
reason -1.510668 -1.580504 1.695737 1.029420 0.016189 -1.028131 0.210383 -0.562167 0.349680 2.194191 
wont -4.039933 -1.925799 -3.399656 0.607539 -1.187841 -2.018188 2.339622 0.926881 2.294071 4.379210 
agree -1.698472 -1.684708 3.023436 0.615183 1.752350 0.735150 0.296152 -0.139912 -1.691555 1.178775 
awesome! -1.474778 -3.533002 2.624286 -1.645342 0.390378 0.553623 -1.526324 -1.251696 0.287037 -2.536214 
internet 0.919177 0.747674 -0.775113 0.013692 0.752727 -0.598447 0.737660 -0.465445 0.905580 5.775902 
between 0.896434 0.411724 1.619807 0.717561 -2.617095 -0.712070 -0.876808 -0.955800 -0.465037 2.728624 
Come 1.663307 -1.487060 -0.219561 -1.866167 -1.650616 2.984603 3.020684 3.473759 2.284243 -0.501075 
website 0.018776 -0.761482 2.505376 0.382498 1.387781 2.709800 -0.917170 1.687572 4.422266 4.359674 
20 -1.390380 2.514926 -0.403422 -0.053496 -6.036360 -3.156116 -0.214715 1.498751 -0.975998 3.879135 
*-* -3.422982 -4.140156 -1.813629 -1.882410 -0.421479 3.109197 2.454773 0.450150 0.943785 -3.722299 
Am 1.401998 0.254377 1.496488 -1.405012 -0.304637 -1.306215 0.050390 -0.508091 -1.381014 1.128783 
yay -0.316984 -1.232332 -2.038777 -1.395015 -1.749631 -0.669052 2.042516 -1.173795 2.740216 -1.319851 
chance -0.490153 -1.878963 1.474374 -0.896953 -0.329167 -0.920323 0.463840 1.096544 2.427396 0.614019 
word -2.121799 -1.154373 0.661392 -0.505180 2.050104 0.805659 -0.734572 0.295024 -0.292280 3.364112 
join -0.098006 -0.960635 2.581727 1.315948 -0.554032 3.401778 3.155388 3.061842 3.370744 0.322873 
With 2.197943 0.355820 1.987171 -1.753582 -0.419871 4.926112 -0.857416 -0.619758 -1.311870 -1.135384 
#followfriday -2.139191 1.045440 4.134313 -1.916849 3.536363 2.162167 2.426421 4.135123 0.154648 -0.299818 
tweeting 0.014715 -1.007757 1.196716 -0.285858 0.697062 -0.471962 2.476468 1.804175 0.284180 2.102170 
wear -0.947339 -2.463026 -0.729902 2.956287 -0.991448 2.873695 -0.541134 -8.382164 -0.129394 -1.408353 
lil -3.663640 3.648076 -2.044408 -1.642935 0.287721 -0.484644 3.208184 -2.168459 0.922730 -3.029403 
you've -3.159909 -0.944975 4.053346 -0.052544 2.280629 -1.867914 0.891519 2.007723 1.265018 1.489550 
pain -0.254607 2.159773 -0.198620 0.658629 1.015398 -3.765661 1.806347 -3.738199 -2.307668 4.172828 
Up 4.477450 0.141482 -0.356420 -3.714949 -2.040143 -0.444460 2.436826 -0.110054 0.769223 -1.678889 
aren't -1.665220 -0.394279 4.072578 2.279790 -0.690758 0.277515 0.846195 0.605439 -2.052177 1.760809 
Poor -3.560506 4.637687 0.248292 -1.417420 0.192937 -1.409119 -0.188615 -1.651947 -1.978406 0.157406 
played -2.766302 -1.202767 0.813888 -1.456386 -3.348502 -2.416970 -3.612946 -2.433465 2.276020 -1.143196 
special -0.786187 2.098713 3.231272 -0.076031 -0.270274 1.908064 1.187556 0.773517 1.225244 -1.887629 
season -0.067292 -3.077721 0.297669 -1.751726 -5.168710 -2.786166 -3.442868 -2.605571 2.234186 -0.489090 
Of 3.897795 -2.501530 4.458284 -1.322088 -2.457598 4.442721 -2.655519 -0.316476 -2.918948 -0.541066 
wedding -0.743253 1.574955 2.370532 -1.875359 0.600085 -0.290618 0.320332 -0.954276 4.929086 -3.040859 
photos -0.875747 -0.659421 3.062652 -0.806338 2.944818 1.002812 -0.992395 -0.653864 4.728031 0.298872 
pay -0.114373 -2.412181 1.814069 4.863026 -2.849177 0.263034 1.678668 -2.025676 1.449752 3.476602 
#fb 2.135010 2.120346 0.822564 -0.854887 -0.896780 -1.192114 0.872425 -0.638140 -0.257670 2.225963 
tea 2.728679 4.622406 1.496963 2.438864 0.609446 4.459765 4.913970 -3.144264 -1.588184 -0.026467 
As -0.737356 -0.245546 3.149226 -1.806512 1.058452 -0.710414 -1.756691 1.162209 -1.739872 1.938695 
wearing -0.383328 -1.093985 -0.281266 0.808360 0.632785 3.277344 -1.425973 -7.018531 -0.717787 -1.556539 
hurt -2.349899 1.765238 -2.182386 0.962435 0.894639 -2.124516 2.042668 -5.144719 -2.121848 2.281792 
broke -2.967212 1.769660 -2.767214 -0.037728 -0.927788 -1.328196 -1.283709 -4.821027 3.138387 1.772834 
together -0.743870 -0.619648 0.679183 0.418191 0.017795 1.328440 1.270183 -0.836885 2.478491 -0.547131 
spend 2.141850 0.265206 1.189884 1.418435 -0.757951 -0.710230 2.884440 -2.432778 2.098743 0.482634 
Work 4.941275 -1.816245 -0.434853 -2.610048 -2.183687 -1.891855 3.197446 -0.833599 1.160518 -0.679960 
See 3.043195 -2.921657 0.411579 -3.323588 0.088804 1.917460 2.321413 3.246556 1.099782 0.041668 
ate -1.781179 3.747484 3.228557 3.114650 -3.796804 -1.526472 2.089560 -5.381760 -0.152558 -3.693264 
soooo -1.348307 -2.150379 -1.191287 -1.163671 -0.823906 -1.374501 1.954418 -2.878648 -1.429618 -2.506012 
forget -0.049982 -2.331847 0.040194 1.832203 -0.590415 3.267111 3.043906 0.093199 0.802991 0.652562 
Only 1.877035 -0.279441 1.555611 -0.701541 -4.014662 -2.101192 -0.497688 0.234799 -1.069333 1.976642 
liked -3.561657 -1.252169 3.724461 0.456485 1.104704 -0.200200 -1.598846 -1.765212 1.527963 -1.103935 
moment 0.726231 -0.035034 1.028440 -0.799213 1.311831 -1.081920 0.362890 -1.836317 -0.896999 1.533512 
Working 5.002195 -0.127419 1.622745 -1.292868 -0.459134 -0.987012 0.864417 -0.947451 2.820650 2.493092 
out! -1.748506 -0.985405 -0.341036 -1.117458 -1.234012 0.514989 0.594994 1.232765 3.178566 -0.294253 
wonder -2.055208 -0.183372 0.637340 1.179240 0.645617 -0.089569 0.711172 -0.562847 -1.467770 3.206421 
raining 4.081584 -1.076225 -0.917583 -2.247038 1.363038 -2.606183 2.400982 -4.253259 -1.087537 0.790645 
haha. -3.309671 -1.829796 -1.018462 0.318093 0.512877 0.088409 1.573639 -2.320110 -0.346790 -0.819704 
30 0.781901 2.230487 0.539241 0.765436 -5.648801 -3.168243 0.774231 0.782434 -0.020411 4.363697 
work, 2.994121 -0.385753 1.260311 1.069056 -1.137743 -1.543934 3.736696 -1.228353 2.827422 1.228538 
front -0.325129 2.808785 0.459964 0.572842 -0.194056 0.518378 -0.372954 -3.906847 2.184553 0.437983 
three 0.164191 0.883419 2.111254 -0.255539 -2.994498 -3.885398 -0.791201 -0.787190 1.213025 1.917042 
Need 1.981845 1.295918 0.170338 0.939731 -0.841315 0.649513 2.401685 -0.466671 1.492049 2.917654 
broken -1.781829 2.380248 -1.150075 0.656347 -0.174357 -0.545639 -0.893503 -2.951473 2.087713 3.885486 
pick 0.078245 -0.131116 -0.443274 1.491111 -0.053866 2.737460 2.556907 -1.748176 3.897870 -0.081844 
behind -0.627503 0.340873 0.001310 -0.759179 0.699808 -0.345744 -0.648378 -1.605296 1.755902 1.636595 
spent 1.187270 1.747111 3.166419 -0.669421 -0.162537 -4.370278 -0.792590 -2.931835 3.280906 1.100873 
supposed -0.738596 -0.993937 -0.128649 -0.958259 -0.014036 -3.039187 1.438580 -0.207903 0.460664 1.665981 
good! 0.012909 -0.447438 1.763249 -1.294138 1.093589 -0.228011 1.406137 -0.785345 -0.695701 -1.495758 
date -0.479883 -1.088372 1.805558 -0.274466 -2.680860 -0.229910 1.200064 1.348638 3.454275 -1.385529 
posted -1.271040 -0.786874 2.954300 -4.136830 3.955902 -0.206101 -2.377433 2.410257 4.445559 2.110730 
god -3.187839 0.829165 -1.206926 -1.073656 -0.298672 -2.674644 3.302115 0.582247 -2.156118 0.510879 
knew -4.387587 -2.488147 2.463200 1.519323 0.117748 -0.631482 -0.648614 -1.380508 -0.443624 0.417971 
laptop -0.380560 1.690320 -0.752719 1.494148 -0.348473 -0.001171 -0.399908 -3.377687 3.050601 4.282593 
support -0.631412 -0.008299 1.701115 0.517531 -0.055990 2.788597 -0.149633 2.327119 -1.504302 4.488087 
near 1.764209 -0.543061 1.255307 0.186808 -1.461673 1.134404 -0.883644 -1.765912 1.700548 0.924735 
?? 1.063391 -3.553079 -2.702130 -1.243908 0.635255 3.018827 1.549976 -0.861022 -3.652890 4.417960 
met -4.523617 1.287254 2.658378 -2.320320 1.086253 -1.595166 -0.266201 0.609906 2.295245 -2.863991 
study 3.771434 -4.010468 -1.811610 0.167744 -0.991948 -1.870614 3.707271 -2.666287 2.073393 2.402291 
Or 0.714018 -1.115557 1.901017 1.888957 -1.454446 1.706095 1.709328 0.646409 -2.746022 2.702913 
bout -3.519469 0.302049 -4.189862 -1.010323 -1.175280 -0.703044 4.003788 0.177082 0.018054 0.022239 
hurts -1.449138 2.039439 -4.227341 -0.086361 1.590930 -2.181804 3.292602 -6.216863 -2.433846 2.509627 
home. 0.890688 2.845507 1.144757 -0.255962 -1.849508 -1.449965 1.883931 -0.682395 2.438676 0.019659 
anymore -2.959752 -1.868402 -1.156183 2.652810 -1.334864 0.746895 2.075399 -1.121410 -0.012677 2.512397 
sometimes -1.766263 -0.172619 1.502015 2.233218 1.581793 -1.083244 2.733393 -1.351453 -2.333331 3.149772 
.... 1.090353 -1.107573 -2.586724 -1.720841 -0.664398 0.154424 1.304483 -0.914947 -1.826679 1.902149 
gorgeous 1.241579 1.058560 1.319233 -3.912396 3.953796 -0.048386 0.577845 -4.102933 -0.980823 -3.321035 
moving 0.754338 1.152855 1.191995 -0.323841 0.248622 -2.671824 1.929468 -0.154394 1.009231 2.652545 
green 0.199871 2.154113 1.886596 1.591249 2.537914 4.469550 0.106429 -5.223034 -1.200432 -0.121818 
dance 1.018338 -1.788235 -1.489582 -1.622509 -1.106534 1.541901 1.242411 -2.479198 2.784097 -2.829293 
line 0.782546 -0.199697 1.029074 0.692223 -1.098479 0.479605 -1.625000 -2.196962 1.737644 2.658406 
Finally 1.022520 2.308622 1.789595 -1.479874 -1.930648 -0.534548 -1.086004 -0.992665 4.280822 -0.243600 
tickets -1.979805 -3.022825 1.448650 1.461869 -6.803782 1.360410 -0.646136 1.363126 5.335610 -1.162364 
officially 0.193186 1.544007 -1.003877 -3.051933 -1.172387 -2.385342 -1.019390 -0.527411 -0.144844 1.953753 
son -3.105392 4.895057 0.570064 -1.456357 -2.057022 -1.941510 0.670818 0.223742 0.494744 -0.776827 
version -1.090617 -2.307391 1.490259 0.415730 -1.066505 2.692048 -3.896774 -1.339566 -0.007955 2.886223 
de 0.558730 2.634074 -4.678004 -3.756938 -0.732087 4.437710 -0.392421 -0.167822 -1.137077 3.037392 
12 -0.020749 1.970882 -0.746976 -1.312631 -4.742472 -3.998356 0.056471 0.309501 -0.210755 3.150997 
there! -1.259857 -1.890825 2.373614 -0.589929 -1.016674 -0.528066 2.270073 1.723253 0.525834 -2.009099 
dead -1.658228 2.409688 -0.557589 -0.593423 -0.880182 -1.984086 -1.322311 -2.164056 0.455961 2.865102 
pictures -2.636957 -1.422694 2.391711 -0.005983 1.286597 1.377580 -1.230791 -0.465770 2.971992 -0.103058 
that! -1.478906 -2.606329 2.160592 0.971657 0.515115 1.048498 1.614843 0.045207 -1.427231 0.016672 
ass -2.885857 1.761603 -3.448789 -0.478943 -0.101281 -0.664979 2.558700 -2.708498 1.172344 0.105601 
different 0.649740 -0.755393 3.777077 0.775982 -0.184839 -0.689611 -1.709594 -1.773758 -2.164147 2.408353 
each -0.452025 1.262882 5.251423 2.839360 -2.300482 -0.763708 1.881281 1.842614 -0.166342 1.938966 
Who -1.842968 0.323423 2.105117 0.884896 -3.281407 1.800587 -0.289021 1.449811 -2.630523 0.669394 
text -2.458995 -1.033109 -1.551540 1.656294 1.426732 1.412570 2.724825 -0.150228 3.505815 3.584895 
train 1.452161 2.488582 -0.953470 -0.538093 -1.334723 -0.899029 1.794031 -1.692437 1.561804 1.560663 
plan 1.344702 -0.875526 0.938960 0.548685 -0.586614 -0.824442 2.033307 0.375811 1.847131 2.637099 
reply -3.235688 -2.464297 -0.629085 1.754221 1.147366 3.108762 3.353484 2.192813 1.856846 2.868317 
!!! 0.083747 -2.889344 -3.110266 -3.200154 -1.954274 0.391395 1.545010 -0.506561 -1.031088 -1.478074 
turned 0.015840 0.228099 0.915497 -0.467977 1.877395 -0.245996 -2.056809 -4.912768 2.151370 0.856721 
She's -3.762454 2.768256 1.724227 -1.073960 0.096643 -0.053327 0.993761 -0.116371 -1.531341 -2.229224 
white -1.915598 1.906704 1.396466 2.948778 -0.126621 3.346918 -2.446763 -8.104075 -0.815525 -0.201524 
&lt;-- -1.828916 1.223221 -0.373398 -1.249795 0.138074 1.656127 0.144720 0.364557 -2.754776 1.212817 
bet -2.580535 -3.449914 1.183518 0.866055 -2.327809 0.902969 0.087071 1.108097 0.310724 0.195712 
9 0.385697 1.324011 -0.655266 -3.030110 -3.656673 -4.944271 -0.204237 1.019595 0.327194 2.640603 
longer -1.521677 0.164391 1.080450 1.546407 -1.273175 -1.167599 0.783810 -0.522815 -0.210577 2.708550 
Really 0.552033 -2.678575 3.042722 -0.916538 -0.528342 -0.569334 -0.336822 -0.804620 -0.387895 -1.438876 
da -2.771550 2.517039 -6.417734 -2.022716 -1.197356 2.167388 3.506359 -1.220710 3.571291 -0.379174 
okay -2.295034 -1.635648 -1.327438 -0.657380 1.492127 -2.113397 3.085661 -0.435913 -0.586421 1.474208 
no-one -3.399622 0.884054 1.211998 2.776480 -1.227507 -1.304559 3.768239 0.721054 0.189697 1.927506 
hello -1.092774 0.963844 -0.523506 -3.295832 2.500639 0.437549 2.855978 2.543598 0.133722 0.157304 
boys -1.106738 0.158351 0.752854 0.415450 -2.511899 0.514271 1.837314 -1.104784 0.817933 -2.813828 
Haha -2.298510 -2.587734 -0.028930 -1.256384 -0.176450 0.333649 0.642543 0.271828 -1.600472 -0.577600 
Big 1.345538 0.797552 1.661331 -4.089988 -0.725336 0.925757 -1.419283 1.621291 0.699420 -0.981901 
Are 0.510459 -1.400128 2.233778 -0.941823 0.191842 2.460023 1.092412 2.501304 -2.690182 0.868586 
xD -2.067843 -3.245842 -2.812555 -2.012340 -0.099942 0.557448 1.838425 -1.445155 -0.284041 -1.846979 
He's -3.478293 2.803019 1.663580 -1.499914 0.010186 -0.486089 -0.227280 -0.195192 -1.101036 -1.360774 
fix 0.480152 -0.450697 0.558692 3.730425 0.491387 0.990870 2.039692 -2.757743 2.808689 4.432405 
worse -0.209570 0.732873 1.179995 1.363141 0.041593 -3.094375 1.929541 -2.690723 -3.350613 3.345930 
sort 1.036741 0.133533 2.421162 2.309222 2.810794 1.417142 2.162148 -2.238248 1.436180 2.939439 
garden 3.301181 3.230972 2.229307 0.504197 2.154323 0.403206 1.694968 -5.752193 2.420284 -0.345857 
holiday 3.864925 -1.145260 1.454017 -1.247025 1.307301 -2.997441 2.750124 -0.840345 2.009732 2.312233 
asleep -2.975451 0.166390 -4.061786 -0.625413 -1.644696 -5.092451 2.529306 -4.824506 3.491358 -0.107681 
bed. 3.081918 -0.240789 -0.879709 -0.681619 -1.192370 -1.676076 4.843186 -1.580892 1.617697 -0.516573 
dress -0.761329 -1.971295 0.681480 0.732907 0.533294 2.950546 0.466232 -5.341298 2.780926 -4.053108 
flight 2.422584 2.797647 1.253897 -1.010078 -3.273792 -1.664554 0.353177 0.836273 1.360178 2.837184 
Trying 3.507099 -3.496827 -1.488372 -0.407956 0.756289 1.233005 1.017775 0.124693 2.762988 6.307409 
hand -0.560470 2.501127 -0.379876 1.129575 0.419683 1.165040 0.186950 -3.258524 0.245415 2.553223 
mood 2.295576 -0.282222 -1.260264 -1.018633 1.603211 0.492379 3.616324 -2.080002 -2.240349 0.884425 
sleep. 2.636650 -0.680473 0.501941 0.720011 -2.226573 -2.625212 4.221894 -2.550530 0.000058 -0.580958 
worked -0.468381 0.614645 1.469292 0.209405 1.735825 -2.557637 0.984895 -1.453387 1.953033 2.785164 
weird -2.955360 0.679480 -0.315528 0.515805 1.954556 -1.240937 1.554495 -2.487122 -1.284242 1.735942 
especially -0.494573 -0.662364 2.537276 -0.286016 1.304959 -0.375243 0.387126 -1.527517 -0.004482 -0.674627 
words -0.143987 -0.639350 1.997818 -0.081576 0.824792 0.920490 -0.309385 -0.029472 -2.073384 2.329261 
again! 0.456561 -0.812608 -0.287973 -0.923003 -1.338598 -0.934803 1.437807 -0.910329 1.000592 -0.544589 
sunday 1.244354 -0.297257 -1.663341 -2.285618 0.834473 -1.613184 3.781754 -1.888323 3.301549 -1.622469 
drinking 3.069431 3.060186 1.675670 1.491856 -0.991478 0.373775 3.406025 -4.363391 -0.950215 -0.805926 
learn 0.649671 -2.490425 0.196523 1.007660 1.343089 1.898765 2.268968 -0.117448 -0.277398 3.149544 
friday -0.377497 -1.515793 -1.459729 -1.532815 -1.248837 -1.855006 3.821000 1.216312 2.668958 -0.362377 
omg -4.372873 -2.359358 -3.280128 -1.620135 -0.336609 -1.151463 0.394196 -3.409416 0.123046 -1.623490 
Been 0.752630 2.561226 3.145759 -1.132411 -0.001179 -3.431104 1.305703 0.542039 0.723744 1.423463 
Best 0.075408 0.142253 3.404176 -3.133061 -1.341977 1.215079 -2.103571 1.332889 0.251642 -2.304727 
chocolate 0.464580 3.097173 3.352017 3.745887 -1.016757 3.990175 3.366188 -4.518317 -2.182122 -2.191283 
fast 0.564268 0.519092 0.185411 -0.702964 -0.919689 -2.175000 0.028590 -1.098277 -1.592065 3.069871 
message -5.433440 0.216595 1.055292 0.571401 0.861257 1.244899 1.256764 3.150861 2.999434 2.159487 
them. -2.017715 -0.549355 3.813267 3.119985 -2.462644 0.832955 0.458655 -0.274292 -0.732915 0.383432 
town 0.555296 0.819632 1.508111 0.379557 -1.174218 -0.506466 2.449253 -1.125345 3.406028 -1.417778 
up! -0.310716 -0.489884 0.835904 -0.650133 -1.005647 -0.424414 2.889158 2.080129 2.156340 -0.220599 
beat -0.135047 -1.511478 -2.085219 -1.576759 -2.338618 0.329633 -1.143040 -2.044764 1.112901 0.104841 
happened -1.306552 -1.845338 -0.016976 -0.083605 1.810819 -0.921448 0.791661 -1.642256 -2.399953 2.704155 
driving 0.785255 1.800889 -0.844747 -0.081553 -0.960975 -1.604101 1.968240 -1.586430 1.723065 2.017963 
died -4.437379 5.045734 -0.023474 -2.297912 -1.539711 -2.917407 -3.755788 -1.511144 0.351856 2.477692 
ME -2.541326 -0.755912 -3.723528 -1.654270 -5.481416 0.533013 2.814317 2.173712 -4.157185 1.912394 
cannot -2.257313 -3.042634 -2.944144 -1.840744 -0.771297 -1.893981 0.512040 1.245667 1.188333 3.311966 
DM -0.987421 -3.551955 1.802291 2.609576 -0.372884 4.634993 3.595162 4.346934 3.337002 3.827523 
comment -3.751001 -2.526160 2.267479 -0.241456 2.283242 3.151815 -1.136395 2.548957 3.165235 2.226281 
gym 1.553531 1.090606 -0.406996 0.371252 -1.643665 -2.708214 4.341218 -2.025943 3.534495 -0.018867 
camera -2.438865 0.084407 0.429763 1.520392 -0.730802 1.005044 -2.295884 -3.724916 3.786937 1.422632 
case -0.542877 0.529290 1.590576 0.419619 -0.431556 -0.216269 -0.206883 0.176888 -0.371531 3.005109 
15 -0.324955 1.468020 -0.706338 -1.127318 -5.182521 -3.683280 -0.801564 0.852575 -0.606157 3.983794 
